/*<!--
    Stump-based 20x20 frontal eye detector.
    Created by Shameem Hameed (http://umich.edu/~shameem)

////////////////////////////////////////////////////////////////////////////////////////

  IMPORTANT: READ BEFORE DOWNLOADING, COPYING, INSTALLING OR USING.

  By downloading, copying, installing or using the software you agree to this license.
  If you do not agree to this license, do not download, install,
  copy or use the software.


                        Intel License Agreement
                For Open Source Computer Vision Library

 Copyright (C) 2000, Intel Corporation, all rights reserved.
 Third party copyrights are property of their respective owners.

 Redistribution and use in source and binary forms, with or without modification,
 are permitted provided that the following conditions are met:

   * Redistribution's of source code must retain the above copyright notice,
     this list of conditions and the following disclaimer.

   * Redistribution's in binary form must reproduce the above copyright notice,
     this list of conditions and the following disclaimer in the documentation
     and/or other materials provided with the distribution.

   * The name of Intel Corporation may not be used to endorse or promote products
     derived from this software without specific prior written permission.

 This software is provided by the copyright holders and contributors "as is" and
 any express or implied warranties, including, but not limited to, the implied
 warranties of merchantability and fitness for a particular purpose are disclaimed.
 In no event shall the Intel Corporation or contributors be liable for any direct,
 indirect, incidental, special, exemplary, or consequential damages
 (including, but not limited to, procurement of substitute goods or services;
 loss of use, data, or profits; or business interruption) however caused
 and on any theory of liability, whether in contract, strict liability,
 or tort (including negligence or otherwise) arising in any way out of
 the use of this software, even if advised of the possibility of such damage.
-->*/

#define EYE_CASCADE_STR "<?xml version=\"1.0\"?>\n<opencv_storage>\n<cascade type_id=\"opencv-cascade-classifier\"><stageType>BOOST</stageType>\n<featureType>HAAR</featureType>\n<height>20</height>\n<width>20</width>\n<stageParams>\n<maxWeakCount>93</maxWeakCount></stageParams>\n<featureParams>\n<maxCatCount>0</maxCatCount></featureParams>\n<stageNum>24</stageNum>\n<stages>\n<_>\n<maxWeakCount>6</maxWeakCount>\n<stageThreshold>-1.4562760591506958e+00</stageThreshold>\n<weakClassifiers>\n<_>\n<internalNodes>\n0 -1 0 1.2963959574699402e-01</internalNodes>\n<leafValues>\n-7.7304208278656006e-01 6.8350148200988770e-01</leafValues></_>\n<_>\n<internalNodes>\n0 -1 1 -4.6326808631420135e-02</internalNodes>\n<leafValues>\n5.7352751493453979e-01 -4.9097689986228943e-01</leafValues></_>\n<_>\n<internalNodes>\n0 -1 2 -1.6173090785741806e-02</internalNodes>\n<leafValues>\n6.0254341363906860e-01 -3.1610709428787231e-01</leafValues></_>\n<_>\n<internalNodes>\n0 -1 3 -4.5828841626644135e-02</internalNodes>\n<leafValues>\n6.4177548885345459e-01 -1.5545040369033813e-01</leafValues></_>\n<_>\n<internalNodes>\n0 -1 4 -5.3759619593620300e-02</internalNodes>\n<leafValues>\n5.4219317436218262e-01 -2.0480829477310181e-01</leafValues></_>\n<_>\n<internalNodes>\n0 -1 5 3.4171190112829208e-02</internalNodes>\n<leafValues>\n-2.3388190567493439e-01 4.8410901427268982e-01</leafValues></_></weakClassifiers></_>\n<_>\n<maxWeakCount>12</maxWeakCount>\n<stageThreshold>-1.2550230026245117e+00</stageThreshold>\n<weakClassifiers>\n<_>\n<internalNodes>\n0 -1 6 -2.1727620065212250e-01</internalNodes>\n<leafValues>\n7.1098899841308594e-01 -5.9360730648040771e-01</leafValues></_>\n<_>\n<internalNodes>\n0 -1 7 1.2071969918906689e-02</internalNodes>\n<leafValues>\n-2.8240481019020081e-01 5.9013551473617554e-01</leafValues></_>\n<_>\n<internalNodes>\n0 -1 8 -1.7854139208793640e-02</internalNodes>\n<leafValues>\n5.3137522935867310e-01 -2.2758960723876953e-01</leafValues></_>\n<_>\n<internalNodes>\n0 -1 9 2.2333610802888870e-02</internalNodes>\n<leafValues>\n-1.7556099593639374e-01 6.3356137275695801e-01</leafValues></_>\n<_>\n<internalNodes>\n0 -1 10 -9.1420017182826996e-02</internalNodes>\n<leafValues>\n6.1563092470169067e-01 -1.6899530589580536e-01</leafValues></_>\n<_>\n<internalNodes>\n0 -1 11 2.8973650187253952e-02</internalNodes>\n<leafValues>\n-1.2250079959630966e-01 7.4401170015335083e-01</leafValues></_>\n<_>\n<internalNodes>\n0 -1 12 7.8203463926911354e-03</internalNodes>\n<leafValues>\n1.6974370181560516e-01 -6.5441650152206421e-01</leafValues></_>\n<_>\n<internalNodes>\n0 -1 13 2.0340489223599434e-02</internalNodes>\n<leafValues>\n-1.2556649744510651e-01 8.2710450887680054e-01</leafValues></_>\n<_>\n<internalNodes>\n0 -1 14 -1.1926149949431419e-02</internalNodes>\n<leafValues>\n3.8605681061744690e-01 -2.0992340147495270e-01</leafValues></_>\n<_>\n<internalNodes>\n0 -1 15 -9.7281101625412703e-04</internalNodes>\n<leafValues>\n-6.3761192560195923e-01 1.2952390313148499e-01</leafValues></_>\n<_>\n<internalNodes>\n0 -1 16 1.8322050891583785e-05</internalNodes>\n<leafValues>\n-3.4631478786468506e-01 2.2924269735813141e-01</leafValues></_>\n<_>\n<internalNodes>\n0 -1 17 -8.0854417756199837e-03</internalNodes>\n<leafValues>\n-6.3665801286697388e-01 1.3078659772872925e-01</leafValues></_></weakClassifiers></_>\n<_>\n<maxWeakCount>9</maxWeakCount>\n<stageThreshold>-1.3728189468383789e+00</stageThreshold>\n<weakClassifiers>\n<_>\n<internalNodes>\n0 -1 18 -1.1812269687652588e-01</internalNodes>\n<leafValues>\n6.7844521999359131e-01 -5.0045782327651978e-01</leafValues></_>\n<_>\n<internalNodes>\n0 -1 19 -3.4332759678363800e-02</internalNodes>\n<leafValues>\n6.7186361551284790e-01 -3.5744878649711609e-01</leafValues></_>\n<_>\n<internalNodes>\n0 -1 20 -2.1530799567699432e-02</internalNodes>\n<leafValues>\n7.2220700979232788e-01 -1.8192419409751892e-01</leafValues></_>\n<_>\n<internalNodes>\n0 -1 21 -2.1909970790147781e-02</internalNodes>\n<leafValues>\n6.6529387235641479e-01 -2.7510228753089905e-01</leafValues></_>\n<_>\n<internalNodes>\n0 -1 22 -2.8713539242744446e-02</internalNodes>\n<leafValues>\n6.9955700635910034e-01 -1.9615580141544342e-01</leafValues></_>\n<_>\n<internalNodes>\n0 -1 23 -1.1467480100691319e-02</internalNodes>\n<leafValues>\n5.9267348051071167e-01 -2.2097350656986237e-01</leafValues></_>\n<_>\n<internalNodes>\n0 -1 24 -2.2611169144511223e-02</internalNodes>\n<leafValues>\n3.4483069181442261e-01 -3.8379558920860291e-01</leafValues></_>\n<_>\n<internalNodes>\n0 -1 25 -1.9308089977130294e-03</internalNodes>\n<leafValues>\n-7.9445719718933105e-01 1.5628659725189209e-01</leafValues></_>\n<_>\n<internalNodes>\n0 -1 26 5.6419910833938047e-05</internalNodes>\n<leafValues>\n-3.0896010994911194e-01 3.5431089997291565e-01</leafValues></_></weakClassifiers></_>\n<_>\n<maxWeakCount>16</maxWeakCount>\n<stageThreshold>-1.2879480123519897e+00</stageThreshold>\n<weakClassifiers>\n<_>\n<internalNodes>\n0 -1 27 1.9886520504951477e-01</internalNodes>\n<leafValues>\n-5.2860701084136963e-01 3.5536721348762512e-01</leafValues></_>\n<_>\n<internalNodes>\n0 -1 28 -3.6008939146995544e-02</internalNodes>\n<leafValues>\n4.2109689116477966e-01 -3.9348980784416199e-01</leafValues></_>\n<_>\n<internalNodes>\n0 -1 29 -7.7569849789142609e-02</internalNodes>\n<leafValues>\n4.7991541028022766e-01 -2.5122168660163879e-01</leafValues></_>\n<_>\n<internalNodes>\n0 -1 30 8.2630853285081685e-05</internalNodes>\n<leafValues>\n-3.8475489616394043e-01 3.1849220395088196e-01</leafValues></_>\n<_>\n<internalNodes>\n0 -1 31 3.2773229759186506e-04</internalNodes>\n<leafValues>\n-2.6427319645881653e-01 3.2547241449356079e-01</leafValues></_>\n<_>\n<internalNodes>\n0 -1 32 -1.8574850633740425e-02</internalNodes>\n<leafValues>\n4.6736589074134827e-01 -1.5067270398139954e-01</leafValues></_>\n<_>\n<internalNodes>\n0 -1 33 -7.0008762122597545e-05</internalNodes>\n<leafValues>\n2.9313150048255920e-01 -2.5365099310874939e-01</leafValues></_>\n<_>\n<internalNodes>\n0 -1 34 -1.8552130088210106e-02</internalNodes>\n<leafValues>\n4.6273660659790039e-01 -1.3148050010204315e-01</leafValues></_>\n<_>\n<internalNodes>\n0 -1 35 -1.3030420057475567e-02</internalNodes>\n<leafValues>\n4.1627219319343567e-01 -1.7751489579677582e-01</leafValues></_>\n<_>\n<internalNodes>\n0 -1 36 6.5694141085259616e-05</internalNodes>\n<leafValues>\n-2.8035101294517517e-01 2.6680740714073181e-01</leafValues></_>\n<_>\n<internalNodes>\n0 -1 37 1.7005260451696813e-04</internalNodes>\n<leafValues>\n-2.7027249336242676e-01 2.3981650173664093e-01</leafValues></_>\n<_>\n<internalNodes>\n0 -1 38 -3.3129199873656034e-03</internalNodes>\n<leafValues>\n4.4411438703536987e-01 -1.4428889751434326e-01</leafValues></_>\n<_>\n<internalNodes>\n0 -1 39 1.7583490116521716e-03</internalNodes>\n<leafValues>\n-1.6126190125942230e-01 4.2940768599510193e-01</leafValues></_>\n<_>\n<internalNodes>\n0 -1 40 -2.5194749236106873e-02</internalNodes>\n<leafValues>\n4.0687298774719238e-01 -1.8202580511569977e-01</leafValues></_>\n<_>\n<internalNodes>\n0 -1 41 1.4031709870323539e-03</internalNodes>\n<leafValues>\n8.4759786725044250e-02 -8.0018568038940430e-01</leafValues></_>\n<_>\n<internalNodes>\n0 -1 42 -7.3991729877889156e-03</internalNodes>\n<leafValues>\n5.5766099691390991e-01 -1.1843159794807434e-01</leafValues></_></weakClassifiers></_>\n<_>\n<maxWeakCount>23</maxWeakCount>\n<stageThreshold>-1.2179850339889526e+00</stageThreshold>\n<weakClassifiers>\n<_>\n<internalNodes>\n0 -1 43 -2.9943080618977547e-02</internalNodes>\n<leafValues>\n3.5810810327529907e-01 -3.8487631082534790e-01</leafValues></_>\n<_>\n<internalNodes>\n0 -1 44 -1.2567380070686340e-01</internalNodes>\n<leafValues>\n3.9316931366920471e-01 -3.0012258887290955e-01</leafValues></_>\n<_>\n<internalNodes>\n0 -1 45 5.3635272197425365e-03</internalNodes>\n<leafValues>\n-4.3908619880676270e-01 1.9257010519504547e-01</leafValues></_>\n<_>\n<internalNodes>\n0 -1 46 -8.0971820279955864e-03</internalNodes>\n<leafValues>\n3.9906668663024902e-01 -2.3407870531082153e-01</leafValues></_>\n<_>\n<internalNodes>\n0 -1 47 -1.6597909852862358e-02</internalNodes>\n<leafValues>\n4.2095288634300232e-01 -2.2674840688705444e-01</leafValues></_>\n<_>\n<internalNodes>\n0 -1 48 -2.0199299324303865e-03</internalNodes>\n<leafValues>\n-7.4156731367111206e-01 1.2601189315319061e-01</leafValues></_>\n<_>\n<internalNodes>\n0 -1 49 -1.5202340437099338e-03</internalNodes>\n<leafValues>\n-7.6154601573944092e-01 8.6373612284660339e-02</leafValues></_>\n<_>\n<internalNodes>\n0 -1 50 -4.9663940444588661e-03</internalNodes>\n<leafValues>\n4.2182239890098572e-01 -1.7904919385910034e-01</leafValues></_>\n<_>\n<internalNodes>\n0 -1 51 -1.9207600504159927e-02</internalNodes>\n<leafValues>\n4.6894899010658264e-01 -1.4378750324249268e-01</leafValues></_>\n<_>\n<internalNodes>\n0 -1 52 -1.2222680263221264e-02</internalNodes>\n<leafValues>\n3.2842078804969788e-01 -2.1802149713039398e-01</leafValues></_>\n<_>\n<internalNodes>\n0 -1 53 5.7548668235540390e-02</internalNodes>\n<leafValues>\n-3.6768808960914612e-01 2.4357110261917114e-01</leafValues></_>\n<_>\n<internalNodes>\n0 -1 54 -9.5794079825282097e-03</internalNodes>\n<leafValues>\n-7.2245067358016968e-01 6.3664563000202179e-02</leafValues></_>\n<_>\n<internalNodes>\n0 -1 55 -2.9545740690082312e-03</internalNodes>\n<leafValues>\n3.5846439003944397e-01 -1.6696329414844513e-01</leafValues></_>\n<_>\n<internalNodes>\n0 -1 56 -4.2017991654574871e-03</internalNodes>\n<leafValues>\n3.9094808697700500e-01 -1.2041790038347244e-01</leafValues></_>\n<_>\n<internalNodes>\n0 -1 57 -1.3624990358948708e-02</internalNodes>\n<leafValues>\n-5.8767718076705933e-01 8.8404729962348938e-02</leafValues></_>\n<_>\n<internalNodes>\n0 -1 58 6.2853112467564642e-05</internalNodes>\n<leafValues>\n-2.6348459720611572e-01 2.1419279277324677e-01</leafValues></_>\n<_>\n<internalNodes>\n0 -1 59 -2.6782939676195383e-03</internalNodes>\n<leafValues>\n-7.8390169143676758e-01 8.0526962876319885e-02</leafValues></_>\n<_>\n<internalNodes>\n0 -1 60 -7.0597179234027863e-02</internalNodes>\n<leafValues>\n4.1469261050224304e-01 -1.3989959657192230e-01</leafValues></_>\n<_>\n<internalNodes>\n0 -1 61 9.2093646526336670e-02</internalNodes>\n<leafValues>\n-1.3055180013179779e-01 5.0435781478881836e-01</leafValues></_>\n<_>\n<internalNodes>\n0 -1 62 -8.8004386052489281e-03</internalNodes>\n<leafValues>\n3.6609750986099243e-01 -1.4036649465560913e-01</leafValues></_>\n<_>\n<internalNodes>\n0 -1 63 7.5080977694597095e-05</internalNodes>\n<leafValues>\n-2.9704439640045166e-01 2.0702940225601196e-01</leafValues></_>\n<_>\n<internalNodes>\n0 -1 64 -2.9870450962334871e-03</internalNodes>\n<leafValues>\n3.5615700483322144e-01 -1.5445969998836517e-01</leafValues></_>\n<_>\n<internalNodes>\n0 -1 65 -2.6441509835422039e-03</internalNodes>\n<leafValues>\n-5.4353517293930054e-01 1.0295110195875168e-01</leafValues></_></weakClassifiers></_>\n<_>\n<maxWeakCount>27</maxWeakCount>\n<stageThreshold>-1.2905240058898926e+00</stageThreshold>\n<weakClassifiers>\n<_>\n<internalNodes>\n0 -1 66 -4.7862470149993896e-02</internalNodes>\n<leafValues>\n4.1528239846229553e-01 -3.4185820817947388e-01</leafValues></_>\n<_>\n<internalNodes>\n0 -1 67 8.7350532412528992e-02</internalNodes>\n<leafValues>\n-3.8749781250953674e-01 2.4204200506210327e-01</leafValues></_>\n<_>\n<internalNodes>\n0 -1 68 -1.6849499195814133e-02</internalNodes>\n<leafValues>\n5.3082478046417236e-01 -1.7282910645008087e-01</leafValues></_>\n<_>\n<internalNodes>\n0 -1 69 -2.8870029374957085e-02</internalNodes>\n<leafValues>\n3.5843509435653687e-01 -2.2402590513229370e-01</leafValues></_>\n<_>\n<internalNodes>\n0 -1 70 2.5679389946162701e-03</internalNodes>\n<leafValues>\n1.4990499615669250e-01 -6.5609407424926758e-01</leafValues></_>\n<_>\n<internalNodes>\n0 -1 71 -2.4116659536957741e-02</internalNodes>\n<leafValues>\n5.5889678001403809e-01 -1.4810280501842499e-01</leafValues></_>\n<_>\n<internalNodes>\n0 -1 72 -3.2826658338308334e-02</internalNodes>\n<leafValues>\n4.6468681097030640e-01 -1.0785529762506485e-01</leafValues></_>\n<_>\n<internalNodes>\n0 -1 73 -1.5233060345053673e-02</internalNodes>\n<leafValues>\n-7.3954427242279053e-01 5.6236881762742996e-02</leafValues></_>\n<_>\n<internalNodes>\n0 -1 74 -3.0209511169232428e-04</internalNodes>\n<leafValues>\n-4.5548820495605469e-01 9.7069837152957916e-02</leafValues></_>\n<_>\n<internalNodes>\n0 -1 75 7.5365108205005527e-04</internalNodes>\n<leafValues>\n9.5147296786308289e-02 -5.4895019531250000e-01</leafValues></_>\n<_>\n<internalNodes>\n0 -1 76 -1.0638950392603874e-02</internalNodes>\n<leafValues>\n4.0912970900535583e-01 -1.2308409810066223e-01</leafValues></_>\n<_>\n<internalNodes>\n0 -1 77 -7.5217830017209053e-03</internalNodes>\n<leafValues>\n4.0289148688316345e-01 -1.6048780083656311e-01</leafValues></_>\n<_>\n<internalNodes>\n0 -1 78 -1.0677099972963333e-01</internalNodes>\n<leafValues>\n6.1759322881698608e-01 -7.3091186583042145e-02</leafValues></_>\n<_>\n<internalNodes>\n0 -1 79 1.6256919130682945e-02</internalNodes>\n<leafValues>\n-1.3103680312633514e-01 3.7453651428222656e-01</leafValues></_>\n<_>\n<internalNodes>\n0 -1 80 -2.0679360255599022e-02</internalNodes>\n<leafValues>\n-7.1402907371520996e-01 5.2390009164810181e-02</leafValues></_>\n<_>\n<internalNodes>\n0 -1 81 1.7052369192242622e-02</internalNodes>\n<leafValues>\n1.2822860479354858e-01 -3.1080681085586548e-01</leafValues></_>\n<_>\n<internalNodes>\n0 -1 82 -5.7122060097754002e-03</internalNodes>\n<leafValues>\n-6.0556507110595703e-01 8.1884756684303284e-02</leafValues></_>\n<_>\n<internalNodes>\n0 -1 83 2.0851430235779844e-05</internalNodes>\n<leafValues>\n-2.6812988519668579e-01 1.4453840255737305e-01</leafValues></_>\n<_>\n<internalNodes>\n0 -1 84 7.9284431412816048e-03</internalNodes>\n<leafValues>\n-7.8795351088047028e-02 5.6762582063674927e-01</leafValues></_>\n<_>\n<internalNodes>\n0 -1 85 -2.5217379443347454e-03</internalNodes>\n<leafValues>\n3.7068629264831543e-01 -1.3620570302009583e-01</leafValues></_>\n<_>\n<internalNodes>\n0 -1 86 -2.2426199167966843e-02</internalNodes>\n<leafValues>\n-6.8704998493194580e-01 5.1062859594821930e-02</leafValues></_>\n<_>\n<internalNodes>\n0 -1 87 -7.6451441273093224e-03</internalNodes>\n<leafValues>\n2.3492220044136047e-01 -1.7905959486961365e-01</leafValues></_>\n<_>\n<internalNodes>\n0 -1 88 -1.1175329564139247e-03</internalNodes>\n<leafValues>\n-5.9869050979614258e-01 7.4324436485767365e-02</leafValues></_>\n<_>\n<internalNodes>\n0 -1 89 1.9212789833545685e-02</internalNodes>\n<leafValues>\n-1.5702550113201141e-01 2.9737469553947449e-01</leafValues></_>\n<_>\n<internalNodes>\n0 -1 90 5.6293429806828499e-03</internalNodes>\n<leafValues>\n-9.9769018590450287e-02 4.2130270600318909e-01</leafValues></_>\n<_>\n<internalNodes>\n0 -1 91 -9.5671862363815308e-03</internalNodes>\n<leafValues>\n-6.0858798027038574e-01 7.3506258428096771e-02</leafValues></_>\n<_>\n<internalNodes>\n0 -1 92 1.1217960156500340e-02</internalNodes>\n<leafValues>\n-1.0320810228586197e-01 4.1909849643707275e-01</leafValues></_></weakClassifiers></_>\n<_>\n<maxWeakCount>28</maxWeakCount>\n<stageThreshold>-1.1600480079650879e+00</stageThreshold>\n<weakClassifiers>\n<_>\n<internalNodes>\n0 -1 93 -1.7486440017819405e-02</internalNodes>\n<leafValues>\n3.1307280063629150e-01 -3.3681181073188782e-01</leafValues></_>\n<_>\n<internalNodes>\n0 -1 94 3.0714649707078934e-02</internalNodes>\n<leafValues>\n-1.8766190111637115e-01 5.3780800104141235e-01</leafValues></_>\n<_>\n<internalNodes>\n0 -1 95 -2.2188719362020493e-02</internalNodes>\n<leafValues>\n3.6637881398200989e-01 -1.6124810278415680e-01</leafValues></_>\n<_>\n<internalNodes>\n0 -1 96 -5.0700771680567414e-05</internalNodes>\n<leafValues>\n2.1245710551738739e-01 -2.8444620966911316e-01</leafValues></_>\n<_>\n<internalNodes>\n0 -1 97 -7.0170420221984386e-03</internalNodes>\n<leafValues>\n3.9543110132217407e-01 -1.3173590600490570e-01</leafValues></_>\n<_>\n<internalNodes>\n0 -1 98 -6.8563609384000301e-03</internalNodes>\n<leafValues>\n3.0373859405517578e-01 -2.0657819509506226e-01</leafValues></_>\n<_>\n<internalNodes>\n0 -1 99 -1.4129259623587132e-02</internalNodes>\n<leafValues>\n-7.6503008604049683e-01 9.8213188350200653e-02</leafValues></_>\n<_>\n<internalNodes>\n0 -1 100 -4.7915481030941010e-02</internalNodes>\n<leafValues>\n4.8307389020919800e-01 -1.3006809353828430e-01</leafValues></_>\n<_>\n<internalNodes>\n0 -1 101 4.7032979637151584e-05</internalNodes>\n<leafValues>\n-2.5216570496559143e-01 2.4386680126190186e-01</leafValues></_>\n<_>\n<internalNodes>\n0 -1 102 1.0221180273219943e-03</internalNodes>\n<leafValues>\n6.8857602775096893e-02 -6.5861141681671143e-01</leafValues></_>\n<_>\n<internalNodes>\n0 -1 103 -2.6056109927594662e-03</internalNodes>\n<leafValues>\n4.2942029237747192e-01 -1.3022460043430328e-01</leafValues></_>\n<_>\n<internalNodes>\n0 -1 104 5.4505340813193470e-05</internalNodes>\n<leafValues>\n-1.9288620352745056e-01 2.8958499431610107e-01</leafValues></_>\n<_>\n<internalNodes>\n0 -1 105 -6.6721157054416835e-05</internalNodes>\n<leafValues>\n3.0290710926055908e-01 -1.9854369759559631e-01</leafValues></_>\n<_>\n<internalNodes>\n0 -1 106 2.6281431317329407e-01</internalNodes>\n<leafValues>\n-2.3293940722942352e-01 2.3692460358142853e-01</leafValues></_>\n<_>\n<internalNodes>\n0 -1 107 -2.3569669574499130e-02</internalNodes>\n<leafValues>\n1.9401040673255920e-01 -2.8484618663787842e-01</leafValues></_>\n<_>\n<internalNodes>\n0 -1 108 -3.9120172150433064e-03</internalNodes>\n<leafValues>\n5.5378979444503784e-01 -9.5665678381919861e-02</leafValues></_>\n<_>\n<internalNodes>\n0 -1 109 5.0788799853762612e-05</internalNodes>\n<leafValues>\n-2.3912659287452698e-01 2.1799489855766296e-01</leafValues></_>\n<_>\n<internalNodes>\n0 -1 110 -7.8732017427682877e-03</internalNodes>\n<leafValues>\n4.0697428584098816e-01 -1.2768040597438812e-01</leafValues></_>\n<_>\n<internalNodes>\n0 -1 111 -1.6778609715402126e-03</internalNodes>\n<leafValues>\n-5.7744657993316650e-01 9.7324788570404053e-02</leafValues></_>\n<_>\n<internalNodes>\n0 -1 112 -2.6832430739887059e-04</internalNodes>\n<leafValues>\n2.9021880030632019e-01 -1.6831269860267639e-01</leafValues></_>\n<_>\n<internalNodes>\n0 -1 113 7.8687182394787669e-05</internalNodes>\n<leafValues>\n-1.9551570713520050e-01 2.7720969915390015e-01</leafValues></_>\n<_>\n<internalNodes>\n0 -1 114 1.2953500263392925e-02</internalNodes>\n<leafValues>\n-9.6838317811489105e-02 4.0323871374130249e-01</leafValues></_>\n<_>\n<internalNodes>\n0 -1 115 -1.3043959625065327e-02</internalNodes>\n<leafValues>\n4.7198569774627686e-01 -8.9287549257278442e-02</leafValues></_>\n<_>\n<internalNodes>\n0 -1 116 3.0261781066656113e-03</internalNodes>\n<leafValues>\n-1.3623380661010742e-01 3.0686271190643311e-01</leafValues></_>\n<_>\n<internalNodes>\n0 -1 117 -6.0438038781285286e-03</internalNodes>\n<leafValues>\n-7.7954101562500000e-01 5.7316310703754425e-02</leafValues></_>\n<_>\n<internalNodes>\n0 -1 118 -2.2507249377667904e-03</internalNodes>\n<leafValues>\n3.0877059698104858e-01 -1.5006309747695923e-01</leafValues></_>\n<_>\n<internalNodes>\n0 -1 119 1.5826810151338577e-02</internalNodes>\n<leafValues>\n6.4551889896392822e-02 -7.2455567121505737e-01</leafValues></_>\n<_>\n<internalNodes>\n0 -1 120 6.5864507632795721e-05</internalNodes>\n<leafValues>\n-1.7598840594291687e-01 2.3210389912128448e-01</leafValues></_></weakClassifiers></_>\n<_>\n<maxWeakCount>36</maxWeakCount>\n<stageThreshold>-1.2257250547409058e+00</stageThreshold>\n<weakClassifiers>\n<_>\n<internalNodes>\n0 -1 121 -2.7854869142174721e-02</internalNodes>\n<leafValues>\n4.5518448948860168e-01 -1.8099910020828247e-01</leafValues></_>\n<_>\n<internalNodes>\n0 -1 122 1.2895040214061737e-01</internalNodes>\n<leafValues>\n-5.2565532922744751e-01 1.6188900172710419e-01</leafValues></_>\n<_>\n<internalNodes>\n0 -1 123 2.4403180927038193e-02</internalNodes>\n<leafValues>\n-1.4974960684776306e-01 4.2357379198074341e-01</leafValues></_>\n<_>\n<internalNodes>\n0 -1 124 -2.4458570405840874e-03</internalNodes>\n<leafValues>\n3.2948669791221619e-01 -1.7447690665721893e-01</leafValues></_>\n<_>\n<internalNodes>\n0 -1 125 -3.5336529836058617e-03</internalNodes>\n<leafValues>\n4.7426640987396240e-01 -7.3618359863758087e-02</leafValues></_>\n<_>\n<internalNodes>\n0 -1 126 5.1358150813030079e-05</internalNodes>\n<leafValues>\n-3.0421930551528931e-01 1.5633270144462585e-01</leafValues></_>\n<_>\n<internalNodes>\n0 -1 127 -1.6225680708885193e-02</internalNodes>\n<leafValues>\n2.3002180457115173e-01 -2.0359820127487183e-01</leafValues></_>\n<_>\n<internalNodes>\n0 -1 128 -4.6007009223103523e-03</internalNodes>\n<leafValues>\n4.0459269285202026e-01 -1.3485440611839294e-01</leafValues></_>\n<_>\n<internalNodes>\n0 -1 129 -2.1928999572992325e-02</internalNodes>\n<leafValues>\n-6.8724489212036133e-01 8.0684266984462738e-02</leafValues></_>\n<_>\n<internalNodes>\n0 -1 130 -2.8971210122108459e-03</internalNodes>\n<leafValues>\n-6.9619607925415039e-01 4.8545219004154205e-02</leafValues></_>\n<_>\n<internalNodes>\n0 -1 131 -4.4074649922549725e-03</internalNodes>\n<leafValues>\n2.5166261196136475e-01 -1.6236649453639984e-01</leafValues></_>\n<_>\n<internalNodes>\n0 -1 132 2.8437169268727303e-02</internalNodes>\n<leafValues>\n6.0394261032342911e-02 -6.6744458675384521e-01</leafValues></_>\n<_>\n<internalNodes>\n0 -1 133 8.3212882280349731e-02</internalNodes>\n<leafValues>\n6.4357921481132507e-02 -5.3626042604446411e-01</leafValues></_>\n<_>\n<internalNodes>\n0 -1 134 -1.2419329956173897e-02</internalNodes>\n<leafValues>\n-7.0816862583160400e-01 5.7526610791683197e-02</leafValues></_>\n<_>\n<internalNodes>\n0 -1 135 -4.6992599964141846e-03</internalNodes>\n<leafValues>\n5.1254332065582275e-01 -8.7350800633430481e-02</leafValues></_>\n<_>\n<internalNodes>\n0 -1 136 -7.8025809489190578e-04</internalNodes>\n<leafValues>\n2.6687660813331604e-01 -1.7961509525775909e-01</leafValues></_>\n<_>\n<internalNodes>\n0 -1 137 -1.9724339246749878e-02</internalNodes>\n<leafValues>\n-6.7563730478286743e-01 7.2941906750202179e-02</leafValues></_>\n<_>\n<internalNodes>\n0 -1 138 1.0269250487908721e-03</internalNodes>\n<leafValues>\n5.3919319063425064e-02 -5.5540180206298828e-01</leafValues></_>\n<_>\n<internalNodes>\n0 -1 139 -2.5957189500331879e-02</internalNodes>\n<leafValues>\n5.6362527608871460e-01 -7.1898393332958221e-02</leafValues></_>\n<_>\n<internalNodes>\n0 -1 140 -1.2552699772641063e-03</internalNodes>\n<leafValues>\n-5.0346630811691284e-01 8.9691452682018280e-02</leafValues></_>\n<_>\n<internalNodes>\n0 -1 141 -4.9970578402280807e-02</internalNodes>\n<leafValues>\n1.7685119807720184e-01 -2.2301959991455078e-01</leafValues></_>\n<_>\n<internalNodes>\n0 -1 142 -2.9899610672146082e-03</internalNodes>\n<leafValues>\n3.9122420549392700e-01 -1.0149750113487244e-01</leafValues></_>\n<_>\n<internalNodes>\n0 -1 143 4.8546842299401760e-03</internalNodes>\n<leafValues>\n-1.1770179867744446e-01 4.2190939188003540e-01</leafValues></_>\n<_>\n<internalNodes>\n0 -1 144 1.0448860120959580e-04</internalNodes>\n<leafValues>\n-1.7333979904651642e-01 2.2344440221786499e-01</leafValues></_>\n<_>\n<internalNodes>\n0 -1 145 5.9689260524464771e-05</internalNodes>\n<leafValues>\n-2.3409630358219147e-01 1.6558240354061127e-01</leafValues></_>\n<_>\n<internalNodes>\n0 -1 146 -1.3423919677734375e-02</internalNodes>\n<leafValues>\n4.3023818731307983e-01 -9.9723652005195618e-02</leafValues></_>\n<_>\n<internalNodes>\n0 -1 147 2.2581999655812979e-03</internalNodes>\n<leafValues>\n7.2720989584922791e-02 -5.7501018047332764e-01</leafValues></_>\n<_>\n<internalNodes>\n0 -1 148 -1.2546280398964882e-02</internalNodes>\n<leafValues>\n3.6184579133987427e-01 -1.1457010358572006e-01</leafValues></_>\n<_>\n<internalNodes>\n0 -1 149 -2.8705769218504429e-03</internalNodes>\n<leafValues>\n2.8210538625717163e-01 -1.2367550283670425e-01</leafValues></_>\n<_>\n<internalNodes>\n0 -1 150 1.9785640761256218e-02</internalNodes>\n<leafValues>\n4.7876749187707901e-02 -8.0666238069534302e-01</leafValues></_>\n<_>\n<internalNodes>\n0 -1 151 4.7588930465281010e-03</internalNodes>\n<leafValues>\n-1.0925389826297760e-01 3.3746978640556335e-01</leafValues></_>\n<_>\n<internalNodes>\n0 -1 152 -6.9974269717931747e-03</internalNodes>\n<leafValues>\n-8.0295938253402710e-01 4.5706700533628464e-02</leafValues></_>\n<_>\n<internalNodes>\n0 -1 153 -1.3033480383455753e-02</internalNodes>\n<leafValues>\n1.8680439889431000e-01 -1.7688910663127899e-01</leafValues></_>\n<_>\n<internalNodes>\n0 -1 154 -1.3742579612880945e-03</internalNodes>\n<leafValues>\n2.7725479006767273e-01 -1.2809009850025177e-01</leafValues></_>\n<_>\n<internalNodes>\n0 -1 155 2.7657810132950544e-03</internalNodes>\n<leafValues>\n9.0758942067623138e-02 -4.2594739794731140e-01</leafValues></_>\n<_>\n<internalNodes>\n0 -1 156 2.8941841446794569e-04</internalNodes>\n<leafValues>\n-3.8816329836845398e-01 8.9267797768115997e-02</leafValues></_></weakClassifiers></_>\n<_>\n<maxWeakCount>47</maxWeakCount>\n<stageThreshold>-1.2863140106201172e+00</stageThreshold>\n<weakClassifiers>\n<_>\n<internalNodes>\n0 -1 157 -1.4469229616224766e-02</internalNodes>\n<leafValues>\n3.7507829070091248e-01 -2.4928289651870728e-01</leafValues></_>\n<_>\n<internalNodes>\n0 -1 158 -1.3317629694938660e-01</internalNodes>\n<leafValues>\n3.0166378617286682e-01 -2.2414070367813110e-01</leafValues></_>\n<_>\n<internalNodes>\n0 -1 159 -1.0132160037755966e-02</internalNodes>\n<leafValues>\n3.6985591053962708e-01 -1.7850010097026825e-01</leafValues></_>\n<_>\n<internalNodes>\n0 -1 160 -7.8511182218790054e-03</internalNodes>\n<leafValues>\n4.6086761355400085e-01 -1.2931390106678009e-01</leafValues></_>\n<_>\n<internalNodes>\n0 -1 161 -1.4295839704573154e-02</internalNodes>\n<leafValues>\n4.4841429591178894e-01 -1.0226240009069443e-01</leafValues></_>\n<_>\n<internalNodes>\n0 -1 162 -5.9606940485537052e-03</internalNodes>\n<leafValues>\n2.7927988767623901e-01 -1.5323829650878906e-01</leafValues></_>\n<_>\n<internalNodes>\n0 -1 163 1.0932769626379013e-02</internalNodes>\n<leafValues>\n-1.5141740441322327e-01 3.9889648556709290e-01</leafValues></_>\n<_>\n<internalNodes>\n0 -1 164 5.0430990086169913e-05</internalNodes>\n<leafValues>\n-2.2681570053100586e-01 2.1644389629364014e-01</leafValues></_>\n<_>\n<internalNodes>\n0 -1 165 -5.8431681245565414e-03</internalNodes>\n<leafValues>\n4.5420148968696594e-01 -1.2587159872055054e-01</leafValues></_>\n<_>\n<internalNodes>\n0 -1 166 -2.2346209734678268e-02</internalNodes>\n<leafValues>\n-6.2690192461013794e-01 8.2403123378753662e-02</leafValues></_>\n<_>\n<internalNodes>\n0 -1 167 -4.8836669884622097e-03</internalNodes>\n<leafValues>\n2.6359251141548157e-01 -1.4686630666255951e-01</leafValues></_>\n<_>\n<internalNodes>\n0 -1 168 7.5506002758629620e-05</internalNodes>\n<leafValues>\n-2.4507020413875580e-01 1.6678880155086517e-01</leafValues></_>\n<_>\n<internalNodes>\n0 -1 169 -4.9026997294276953e-04</internalNodes>\n<leafValues>\n-4.2649960517883301e-01 8.9973561465740204e-02</leafValues></_>\n<_>\n<internalNodes>\n0 -1 170 1.4861579984426498e-03</internalNodes>\n<leafValues>\n-1.2040250003337860e-01 3.0097651481628418e-01</leafValues></_>\n<_>\n<internalNodes>\n0 -1 171 -1.1988339945673943e-02</internalNodes>\n<leafValues>\n2.7852478623390198e-01 -1.2244340032339096e-01</leafValues></_>\n<_>\n<internalNodes>\n0 -1 172 1.0502239689230919e-02</internalNodes>\n<leafValues>\n4.0452759712934494e-02 -7.4050408601760864e-01</leafValues></_>\n<_>\n<internalNodes>\n0 -1 173 -3.0963009223341942e-02</internalNodes>\n<leafValues>\n-6.2842690944671631e-01 4.8013761639595032e-02</leafValues></_>\n<_>\n<internalNodes>\n0 -1 174 1.1414520442485809e-02</internalNodes>\n<leafValues>\n3.9405211806297302e-02 -7.1674120426177979e-01</leafValues></_>\n<_>\n<internalNodes>\n0 -1 175 -1.2337000109255314e-02</internalNodes>\n<leafValues>\n1.9941329956054688e-01 -1.9274300336837769e-01</leafValues></_>\n<_>\n<internalNodes>\n0 -1 176 -5.9942267835140228e-03</internalNodes>\n<leafValues>\n5.1318162679672241e-01 -6.1658058315515518e-02</leafValues></_>\n<_>\n<internalNodes>\n0 -1 177 -1.1923230485990644e-03</internalNodes>\n<leafValues>\n-7.2605299949645996e-01 5.0652720034122467e-02</leafValues></_>\n<_>\n<internalNodes>\n0 -1 178 -7.4582789093255997e-03</internalNodes>\n<leafValues>\n2.9603078961372375e-01 -1.1754789948463440e-01</leafValues></_>\n<_>\n<internalNodes>\n0 -1 179 2.7877509128302336e-03</internalNodes>\n<leafValues>\n4.5068711042404175e-02 -6.9535410404205322e-01</leafValues></_>\n<_>\n<internalNodes>\n0 -1 180 -2.2503209766000509e-04</internalNodes>\n<leafValues>\n2.0047250390052795e-01 -1.5775249898433685e-01</leafValues></_>\n<_>\n<internalNodes>\n0 -1 181 -5.0367889925837517e-03</internalNodes>\n<leafValues>\n2.9299819469451904e-01 -1.1700499802827835e-01</leafValues></_>\n<_>\n<internalNodes>\n0 -1 182 7.4742160737514496e-02</internalNodes>\n<leafValues>\n-1.1392319947481155e-01 3.0256620049476624e-01</leafValues></_>\n<_>\n<internalNodes>\n0 -1 183 2.0255519077181816e-02</internalNodes>\n<leafValues>\n-1.0515890270471573e-01 4.0670460462570190e-01</leafValues></_>\n<_>\n<internalNodes>\n0 -1 184 4.4214509427547455e-02</internalNodes>\n<leafValues>\n-2.7631640434265137e-01 1.2363869696855545e-01</leafValues></_>\n<_>\n<internalNodes>\n0 -1 185 -8.7259558495134115e-04</internalNodes>\n<leafValues>\n2.4355030059814453e-01 -1.3300949335098267e-01</leafValues></_>\n<_>\n<internalNodes>\n0 -1 186 -2.4453739169985056e-03</internalNodes>\n<leafValues>\n-5.3866171836853027e-01 6.2510646879673004e-02</leafValues></_>\n<_>\n<internalNodes>\n0 -1 187 8.2725353422574699e-05</internalNodes>\n<leafValues>\n-2.0772209763526917e-01 1.6270439326763153e-01</leafValues></_>\n<_>\n<internalNodes>\n0 -1 188 -3.6627110093832016e-02</internalNodes>\n<leafValues>\n3.6568409204483032e-01 -9.0330280363559723e-02</leafValues></_>\n<_>\n<internalNodes>\n0 -1 189 3.0996399000287056e-03</internalNodes>\n<leafValues>\n-1.3183020055294037e-01 2.5354298949241638e-01</leafValues></_>\n<_>\n<internalNodes>\n0 -1 190 -2.4709280114620924e-03</internalNodes>\n<leafValues>\n-5.6853497028350830e-01 5.3505431860685349e-02</leafValues></_>\n<_>\n<internalNodes>\n0 -1 191 -1.4114670455455780e-02</internalNodes>\n<leafValues>\n-4.8599010705947876e-01 5.8485250920057297e-02</leafValues></_>\n<_>\n<internalNodes>\n0 -1 192 8.4537261864170432e-04</internalNodes>\n<leafValues>\n-8.0093637108802795e-02 4.0265649557113647e-01</leafValues></_>\n<_>\n<internalNodes>\n0 -1 193 -7.1098632179200649e-03</internalNodes>\n<leafValues>\n4.4703239202499390e-01 -6.2947437167167664e-02</leafValues></_>\n<_>\n<internalNodes>\n0 -1 194 -1.9125960767269135e-02</internalNodes>\n<leafValues>\n-6.6422867774963379e-01 4.9822770059108734e-02</leafValues></_>\n<_>\n<internalNodes>\n0 -1 195 -5.0773010589182377e-03</internalNodes>\n<leafValues>\n1.7379400134086609e-01 -1.6850599646568298e-01</leafValues></_>\n<_>\n<internalNodes>\n0 -1 196 -2.9198289848864079e-03</internalNodes>\n<leafValues>\n-6.0110282897949219e-01 5.7427939027547836e-02</leafValues></_>\n<_>\n<internalNodes>\n0 -1 197 -2.4902150034904480e-02</internalNodes>\n<leafValues>\n2.3397980630397797e-01 -1.1818459630012512e-01</leafValues></_>\n<_>\n<internalNodes>\n0 -1 198 2.0147779956459999e-02</internalNodes>\n<leafValues>\n-8.9459821581840515e-02 3.6024400591850281e-01</leafValues></_>\n<_>\n<internalNodes>\n0 -1 199 1.7597640398889780e-03</internalNodes>\n<leafValues>\n4.9458440393209457e-02 -6.3102620840072632e-01</leafValues></_>\n<_>\n<internalNodes>\n0 -1 200 1.3812039978802204e-03</internalNodes>\n<leafValues>\n-1.5218059718608856e-01 1.8971739709377289e-01</leafValues></_>\n<_>\n<internalNodes>\n0 -1 201 -1.0904540307819843e-02</internalNodes>\n<leafValues>\n-5.8097380399703979e-01 4.4862728565931320e-02</leafValues></_>\n<_>\n<internalNodes>\n0 -1 202 7.5157178798690438e-05</internalNodes>\n<leafValues>\n-1.3777349889278412e-01 1.9543160498142242e-01</leafValues></_>\n<_>\n<internalNodes>\n0 -1 203 3.8649770431220531e-03</internalNodes>\n<leafValues>\n-1.0302229970693588e-01 2.5374969840049744e-01</leafValues></_></weakClassifiers></_>\n<_>\n<maxWeakCount>48</maxWeakCount>\n<stageThreshold>-1.1189440488815308e+00</stageThreshold>\n<weakClassifiers>\n<_>\n<internalNodes>\n0 -1 204 -1.0215889662504196e-01</internalNodes>\n<leafValues>\n4.1681259870529175e-01 -1.6655629873275757e-01</leafValues></_>\n<_>\n<internalNodes>\n0 -1 205 -5.1939819008111954e-02</internalNodes>\n<leafValues>\n3.3023950457572937e-01 -2.0715710520744324e-01</leafValues></_>\n<_>\n<internalNodes>\n0 -1 206 -4.2717780917882919e-02</internalNodes>\n<leafValues>\n2.6093730330467224e-01 -1.6013890504837036e-01</leafValues></_>\n<_>\n<internalNodes>\n0 -1 207 4.3890418601222336e-04</internalNodes>\n<leafValues>\n-3.4750530123710632e-01 1.3918919861316681e-01</leafValues></_>\n<_>\n<internalNodes>\n0 -1 208 2.4264389649033546e-02</internalNodes>\n<leafValues>\n-4.2552059888839722e-01 1.3578380644321442e-01</leafValues></_>\n<_>\n<internalNodes>\n0 -1 209 -2.3820599541068077e-02</internalNodes>\n<leafValues>\n3.1749808788299561e-01 -1.6652040183544159e-01</leafValues></_>\n<_>\n<internalNodes>\n0 -1 210 -7.0518180727958679e-03</internalNodes>\n<leafValues>\n3.0947178602218628e-01 -1.3338300585746765e-01</leafValues></_>\n<_>\n<internalNodes>\n0 -1 211 -6.8517157342284918e-04</internalNodes>\n<leafValues>\n-6.0082262754440308e-01 8.7747000157833099e-02</leafValues></_>\n<_>\n<internalNodes>\n0 -1 212 5.3705149330198765e-03</internalNodes>\n<leafValues>\n-1.2311449646949768e-01 3.8333550095558167e-01</leafValues></_>\n<_>\n<internalNodes>\n0 -1 213 -1.3403539545834064e-02</internalNodes>\n<leafValues>\n3.3877369761466980e-01 -1.0140489786863327e-01</leafValues></_>\n<_>\n<internalNodes>\n0 -1 214 -6.6856360062956810e-03</internalNodes>\n<leafValues>\n-6.1193597316741943e-01 4.7740221023559570e-02</leafValues></_>\n<_>\n<internalNodes>\n0 -1 215 -4.2887418530881405e-03</internalNodes>\n<leafValues>\n2.5275790691375732e-01 -1.4434510469436646e-01</leafValues></_>\n<_>\n<internalNodes>\n0 -1 216 -1.0876749642193317e-02</internalNodes>\n<leafValues>\n5.4775732755661011e-01 -5.9455480426549911e-02</leafValues></_>\n<_>\n<internalNodes>\n0 -1 217 3.7882640026509762e-04</internalNodes>\n<leafValues>\n8.3410300314426422e-02 -4.4226369261741638e-01</leafValues></_>\n<_>\n<internalNodes>\n0 -1 218 -2.4550149682909250e-03</internalNodes>\n<leafValues>\n2.3330999910831451e-01 -1.3964480161666870e-01</leafValues></_>\n<_>\n<internalNodes>\n0 -1 219 1.2721839593723416e-03</internalNodes>\n<leafValues>\n6.0480289161205292e-02 -4.9456089735031128e-01</leafValues></_>\n<_>\n<internalNodes>\n0 -1 220 -4.8933159559965134e-03</internalNodes>\n<leafValues>\n-6.6833269596099854e-01 4.6218499541282654e-02</leafValues></_>\n<_>\n<internalNodes>\n0 -1 221 2.6449989527463913e-02</internalNodes>\n<leafValues>\n-7.3235362768173218e-02 4.4425961375236511e-01</leafValues></_>\n<_>\n<internalNodes>\n0 -1 222 -3.3706070389598608e-03</internalNodes>\n<leafValues>\n-4.2464339733123779e-01 6.8676561117172241e-02</leafValues></_>\n<_>\n<internalNodes>\n0 -1 223 -2.9559480026364326e-03</internalNodes>\n<leafValues>\n1.6218039393424988e-01 -1.8222999572753906e-01</leafValues></_>\n<_>\n<internalNodes>\n0 -1 224 3.0619909986853600e-02</internalNodes>\n<leafValues>\n-5.8643341064453125e-02 5.3263628482818604e-01</leafValues></_>\n<_>\n<internalNodes>\n0 -1 225 -9.5765907317399979e-03</internalNodes>\n<leafValues>\n-6.0562682151794434e-01 5.3345989435911179e-02</leafValues></_>\n<_>\n<internalNodes>\n0 -1 226 6.6372493165545166e-05</internalNodes>\n<leafValues>\n-1.6680839657783508e-01 1.9284160435199738e-01</leafValues></_>\n<_>\n<internalNodes>\n0 -1 227 5.0975950434803963e-03</internalNodes>\n<leafValues>\n4.4119510799646378e-02 -5.7458841800689697e-01</leafValues></_>\n<_>\n<internalNodes>\n0 -1 228 3.7112718564458191e-04</internalNodes>\n<leafValues>\n-1.1086399853229523e-01 2.3105390369892120e-01</leafValues></_>\n<_>\n<internalNodes>\n0 -1 229 -8.6607588455080986e-03</internalNodes>\n<leafValues>\n4.0456289052963257e-01 -6.2446091324090958e-02</leafValues></_>\n<_>\n<internalNodes>\n0 -1 230 8.7489158613607287e-04</internalNodes>\n<leafValues>\n6.4875148236751556e-02 -4.4871041178703308e-01</leafValues></_>\n<_>\n<internalNodes>\n0 -1 231 1.1120870476588607e-03</internalNodes>\n<leafValues>\n-9.3861460685729980e-02 3.0453911423683167e-01</leafValues></_>\n<_>\n<internalNodes>\n0 -1 232 -2.3837819695472717e-02</internalNodes>\n<leafValues>\n-5.8887428045272827e-01 4.6659421175718307e-02</leafValues></_>\n<_>\n<internalNodes>\n0 -1 233 2.2272899514064193e-04</internalNodes>\n<leafValues>\n-1.4898599684238434e-01 1.7701950669288635e-01</leafValues></_>\n<_>\n<internalNodes>\n0 -1 234 2.4467470124363899e-02</internalNodes>\n<leafValues>\n-5.5789601057767868e-02 4.9208301305770874e-01</leafValues></_>\n<_>\n<internalNodes>\n0 -1 235 -1.4239320158958435e-01</internalNodes>\n<leafValues>\n1.5192000567913055e-01 -1.8778899312019348e-01</leafValues></_>\n<_>\n<internalNodes>\n0 -1 236 -2.0123120397329330e-02</internalNodes>\n<leafValues>\n2.1780100464820862e-01 -1.2081900238990784e-01</leafValues></_>\n<_>\n<internalNodes>\n0 -1 237 1.1513679783092812e-04</internalNodes>\n<leafValues>\n-1.6856589913368225e-01 1.6451929509639740e-01</leafValues></_>\n<_>\n<internalNodes>\n0 -1 238 -2.7556740678846836e-03</internalNodes>\n<leafValues>\n-6.9442039728164673e-01 3.9449468255043030e-02</leafValues></_>\n<_>\n<internalNodes>\n0 -1 239 -7.5843912782147527e-05</internalNodes>\n<leafValues>\n1.8941369652748108e-01 -1.5183840692043304e-01</leafValues></_>\n<_>\n<internalNodes>\n0 -1 240 -7.0697711780667305e-03</internalNodes>\n<leafValues>\n4.7064599394798279e-01 -5.7927619665861130e-02</leafValues></_>\n<_>\n<internalNodes>\n0 -1 241 -3.7393178790807724e-02</internalNodes>\n<leafValues>\n-7.5892448425292969e-01 3.4116048365831375e-02</leafValues></_>\n<_>\n<internalNodes>\n0 -1 242 -1.5995610505342484e-02</internalNodes>\n<leafValues>\n3.0670469999313354e-01 -8.7525576353073120e-02</leafValues></_>\n<_>\n<internalNodes>\n0 -1 243 -3.1183990649878979e-03</internalNodes>\n<leafValues>\n2.6195371150970459e-01 -9.1214887797832489e-02</leafValues></_>\n<_>\n<internalNodes>\n0 -1 244 1.0651360498741269e-03</internalNodes>\n<leafValues>\n-1.7427560687065125e-01 1.5277640521526337e-01</leafValues></_>\n<_>\n<internalNodes>\n0 -1 245 -1.6029420075938106e-03</internalNodes>\n<leafValues>\n3.5612630844116211e-01 -7.6629996299743652e-02</leafValues></_>\n<_>\n<internalNodes>\n0 -1 246 4.3619908392429352e-03</internalNodes>\n<leafValues>\n4.9356970936059952e-02 -5.9228771924972534e-01</leafValues></_>\n<_>\n<internalNodes>\n0 -1 247 -1.0779909789562225e-02</internalNodes>\n<leafValues>\n-6.3922178745269775e-01 3.3204540610313416e-02</leafValues></_>\n<_>\n<internalNodes>\n0 -1 248 -4.3590869754552841e-03</internalNodes>\n<leafValues>\n1.6107389330863953e-01 -1.5221320092678070e-01</leafValues></_>\n<_>\n<internalNodes>\n0 -1 249 7.4596069753170013e-03</internalNodes>\n<leafValues>\n3.3172961324453354e-02 -7.5007742643356323e-01</leafValues></_>\n<_>\n<internalNodes>\n0 -1 250 8.1385448575019836e-03</internalNodes>\n<leafValues>\n2.6325279846787453e-02 -7.1731162071228027e-01</leafValues></_>\n<_>\n<internalNodes>\n0 -1 251 -3.3338490873575211e-02</internalNodes>\n<leafValues>\n3.3536610007286072e-01 -7.0803590118885040e-02</leafValues></_></weakClassifiers></_>\n<_>\n<maxWeakCount>55</maxWeakCount>\n<stageThreshold>-1.1418989896774292e+00</stageThreshold>\n<weakClassifiers>\n<_>\n<internalNodes>\n0 -1 252 1.9553979858756065e-02</internalNodes>\n<leafValues>\n-1.0439720004796982e-01 5.3128951787948608e-01</leafValues></_>\n<_>\n<internalNodes>\n0 -1 253 2.2122919559478760e-02</internalNodes>\n<leafValues>\n-2.4747270345687866e-01 2.0847250521183014e-01</leafValues></_>\n<_>\n<internalNodes>\n0 -1 254 -4.1829389519989491e-03</internalNodes>\n<leafValues>\n3.8289439678192139e-01 -1.4711579680442810e-01</leafValues></_>\n<_>\n<internalNodes>\n0 -1 255 -8.6381728760898113e-04</internalNodes>\n<leafValues>\n-6.2632888555526733e-01 1.1993259936571121e-01</leafValues></_>\n<_>\n<internalNodes>\n0 -1 256 7.9958612332120538e-04</internalNodes>\n<leafValues>\n9.2573471367359161e-02 -5.5168831348419189e-01</leafValues></_>\n<_>\n<internalNodes>\n0 -1 257 9.1527570039033890e-03</internalNodes>\n<leafValues>\n-7.2929807007312775e-02 5.5512511730194092e-01</leafValues></_>\n<_>\n<internalNodes>\n0 -1 258 -3.9388681761920452e-03</internalNodes>\n<leafValues>\n2.0196039974689484e-01 -2.0912039279937744e-01</leafValues></_>\n<_>\n<internalNodes>\n0 -1 259 1.4613410166930407e-04</internalNodes>\n<leafValues>\n-2.7861818671226501e-01 1.3817410171031952e-01</leafValues></_>\n<_>\n<internalNodes>\n0 -1 260 -3.1691689509898424e-03</internalNodes>\n<leafValues>\n3.6685898900032043e-01 -7.6308242976665497e-02</leafValues></_>\n<_>\n<internalNodes>\n0 -1 261 -2.2189389914274216e-02</internalNodes>\n<leafValues>\n3.9096599817276001e-01 -1.0971540212631226e-01</leafValues></_>\n<_>\n<internalNodes>\n0 -1 262 -7.4523608200252056e-03</internalNodes>\n<leafValues>\n1.2838590145111084e-01 -2.4159869551658630e-01</leafValues></_>\n<_>\n<internalNodes>\n0 -1 263 7.7997002517804503e-04</internalNodes>\n<leafValues>\n7.1978069841861725e-02 -4.3976500630378723e-01</leafValues></_>\n<_>\n<internalNodes>\n0 -1 264 -4.6783639118075371e-03</internalNodes>\n<leafValues>\n2.1569849550724030e-01 -1.4205920696258545e-01</leafValues></_>\n<_>\n<internalNodes>\n0 -1 265 -1.5188639983534813e-02</internalNodes>\n<leafValues>\n3.6458781361579895e-01 -8.2675926387310028e-02</leafValues></_>\n<_>\n<internalNodes>\n0 -1 266 5.0619798712432384e-03</internalNodes>\n<leafValues>\n-3.4380409121513367e-01 9.2068232595920563e-02</leafValues></_>\n<_>\n<internalNodes>\n0 -1 267 -1.7351920250803232e-03</internalNodes>\n<leafValues>\n-6.1725497245788574e-01 4.9214478582143784e-02</leafValues></_>\n<_>\n<internalNodes>\n0 -1 268 -1.2423450127243996e-02</internalNodes>\n<leafValues>\n-5.8558952808380127e-01 4.6112600713968277e-02</leafValues></_>\n<_>\n<internalNodes>\n0 -1 269 -1.3031429611146450e-02</internalNodes>\n<leafValues>\n-5.9710788726806641e-01 4.0672458708286285e-02</leafValues></_>\n<_>\n<internalNodes>\n0 -1 270 -1.2369629694148898e-03</internalNodes>\n<leafValues>\n-6.8334168195724487e-01 3.3156178891658783e-02</leafValues></_>\n<_>\n<internalNodes>\n0 -1 271 6.1022108420729637e-03</internalNodes>\n<leafValues>\n-9.4729237258434296e-02 3.0102241039276123e-01</leafValues></_>\n<_>\n<internalNodes>\n0 -1 272 6.6952849738299847e-04</internalNodes>\n<leafValues>\n8.1816866993904114e-02 -3.5196030139923096e-01</leafValues></_>\n<_>\n<internalNodes>\n0 -1 273 -1.7970580374822021e-03</internalNodes>\n<leafValues>\n2.3718979954719543e-01 -1.1768709868192673e-01</leafValues></_>\n<_>\n<internalNodes>\n0 -1 274 -7.1074528386816382e-04</internalNodes>\n<leafValues>\n-4.4763788580894470e-01 5.7682480663061142e-02</leafValues></_>\n<_>\n<internalNodes>\n0 -1 275 -5.9126471169292927e-03</internalNodes>\n<leafValues>\n4.3425410985946655e-01 -6.6868573427200317e-02</leafValues></_>\n<_>\n<internalNodes>\n0 -1 276 -3.3132149837911129e-03</internalNodes>\n<leafValues>\n1.8150010704994202e-01 -1.4180320501327515e-01</leafValues></_>\n<_>\n<internalNodes>\n0 -1 277 -6.0814660042524338e-02</internalNodes>\n<leafValues>\n4.7221711277961731e-01 -6.1410639435052872e-02</leafValues></_>\n<_>\n<internalNodes>\n0 -1 278 -9.6714183688163757e-02</internalNodes>\n<leafValues>\n2.7683168649673462e-01 -9.4490036368370056e-02</leafValues></_>\n<_>\n<internalNodes>\n0 -1 279 3.9073550142347813e-03</internalNodes>\n<leafValues>\n-1.2278530001640320e-01 2.1057400107383728e-01</leafValues></_>\n<_>\n<internalNodes>\n0 -1 280 -9.0431869029998779e-03</internalNodes>\n<leafValues>\n3.5641568899154663e-01 -7.7806226909160614e-02</leafValues></_>\n<_>\n<internalNodes>\n0 -1 281 -4.8800031654536724e-03</internalNodes>\n<leafValues>\n-4.1034790873527527e-01 6.9694377481937408e-02</leafValues></_>\n<_>\n<internalNodes>\n0 -1 282 -4.3547428213059902e-03</internalNodes>\n<leafValues>\n-7.3017889261245728e-01 3.6655150353908539e-02</leafValues></_>\n<_>\n<internalNodes>\n0 -1 283 -9.6500627696514130e-03</internalNodes>\n<leafValues>\n5.5181127786636353e-01 -5.3168080747127533e-02</leafValues></_>\n<_>\n<internalNodes>\n0 -1 284 -1.7397310584783554e-02</internalNodes>\n<leafValues>\n-5.7084232568740845e-01 5.0214089453220367e-02</leafValues></_>\n<_>\n<internalNodes>\n0 -1 285 -6.8304329179227352e-03</internalNodes>\n<leafValues>\n-4.6180281043052673e-01 5.0202690064907074e-02</leafValues></_>\n<_>\n<internalNodes>\n0 -1 286 3.3255619928240776e-04</internalNodes>\n<leafValues>\n-9.5362730324268341e-02 2.5983759760856628e-01</leafValues></_>\n<_>\n<internalNodes>\n0 -1 287 -2.3100529797375202e-03</internalNodes>\n<leafValues>\n2.2872470319271088e-01 -1.0533530265092850e-01</leafValues></_>\n<_>\n<internalNodes>\n0 -1 288 -7.5426651164889336e-03</internalNodes>\n<leafValues>\n-5.6990510225296021e-01 4.8863459378480911e-02</leafValues></_>\n<_>\n<internalNodes>\n0 -1 289 -5.2723060362040997e-03</internalNodes>\n<leafValues>\n3.5145181417465210e-01 -8.2390107214450836e-02</leafValues></_>\n<_>\n<internalNodes>\n0 -1 290 -4.8578968271613121e-03</internalNodes>\n<leafValues>\n-6.0417622327804565e-01 4.4539440423250198e-02</leafValues></_>\n<_>\n<internalNodes>\n0 -1 291 1.5867310576140881e-03</internalNodes>\n<leafValues>\n-1.0340909659862518e-01 2.3282019793987274e-01</leafValues></_>\n<_>\n<internalNodes>\n0 -1 292 -4.7427811659872532e-03</internalNodes>\n<leafValues>\n2.8490281105041504e-01 -9.8090499639511108e-02</leafValues></_>\n<_>\n<internalNodes>\n0 -1 293 -1.3515240279957652e-03</internalNodes>\n<leafValues>\n2.3096430301666260e-01 -1.1361840367317200e-01</leafValues></_>\n<_>\n<internalNodes>\n0 -1 294 2.2526069078594446e-03</internalNodes>\n<leafValues>\n6.4478322863578796e-02 -4.2205891013145447e-01</leafValues></_>\n<_>\n<internalNodes>\n0 -1 295 -3.8038659840822220e-04</internalNodes>\n<leafValues>\n-3.8076201081275940e-01 6.0043290257453918e-02</leafValues></_>\n<_>\n<internalNodes>\n0 -1 296 4.9043921753764153e-03</internalNodes>\n<leafValues>\n-7.6104998588562012e-02 3.3232170343399048e-01</leafValues></_>\n<_>\n<internalNodes>\n0 -1 297 -9.0969670563936234e-03</internalNodes>\n<leafValues>\n1.4287790656089783e-01 -1.6887800395488739e-01</leafValues></_>\n<_>\n<internalNodes>\n0 -1 298 -6.9317929446697235e-03</internalNodes>\n<leafValues>\n2.7255409955978394e-01 -9.2879563570022583e-02</leafValues></_>\n<_>\n<internalNodes>\n0 -1 299 1.1471060570329428e-03</internalNodes>\n<leafValues>\n-1.5273059904575348e-01 1.9702400267124176e-01</leafValues></_>\n<_>\n<internalNodes>\n0 -1 300 -3.7662889808416367e-02</internalNodes>\n<leafValues>\n-5.9320437908172607e-01 4.0738601237535477e-02</leafValues></_>\n<_>\n<internalNodes>\n0 -1 301 -6.8165571428835392e-03</internalNodes>\n<leafValues>\n2.5494089722633362e-01 -9.4081960618495941e-02</leafValues></_>\n<_>\n<internalNodes>\n0 -1 302 6.6205562325194478e-04</internalNodes>\n<leafValues>\n4.6795718371868134e-02 -4.8454371094703674e-01</leafValues></_>\n<_>\n<internalNodes>\n0 -1 303 -4.2202551849186420e-03</internalNodes>\n<leafValues>\n2.4682149291038513e-01 -9.4673976302146912e-02</leafValues></_>\n<_>\n<internalNodes>\n0 -1 304 -6.8986512720584869e-02</internalNodes>\n<leafValues>\n-6.6514801979064941e-01 3.5926390439271927e-02</leafValues></_>\n<_>\n<internalNodes>\n0 -1 305 6.1707608401775360e-03</internalNodes>\n<leafValues>\n2.5833319872617722e-02 -7.2686272859573364e-01</leafValues></_>\n<_>\n<internalNodes>\n0 -1 306 1.0536249727010727e-02</internalNodes>\n<leafValues>\n-8.1828996539115906e-02 2.9760798811912537e-01</leafValues></_></weakClassifiers></_>\n<_>\n<maxWeakCount>32</maxWeakCount>\n<stageThreshold>-1.1255199909210205e+00</stageThreshold>\n<weakClassifiers>\n<_>\n<internalNodes>\n0 -1 307 -6.2758728861808777e-02</internalNodes>\n<leafValues>\n2.7899080514907837e-01 -2.9656109213829041e-01</leafValues></_>\n<_>\n<internalNodes>\n0 -1 308 3.4516479354351759e-03</internalNodes>\n<leafValues>\n-3.4635880589485168e-01 2.0903840661048889e-01</leafValues></_>\n<_>\n<internalNodes>\n0 -1 309 -7.8699486330151558e-03</internalNodes>\n<leafValues>\n2.4144889414310455e-01 -1.9205570220947266e-01</leafValues></_>\n<_>\n<internalNodes>\n0 -1 310 -3.4624869003891945e-03</internalNodes>\n<leafValues>\n-5.9151780605316162e-01 1.2486449629068375e-01</leafValues></_>\n<_>\n<internalNodes>\n0 -1 311 -9.4818761572241783e-03</internalNodes>\n<leafValues>\n1.8391540646553040e-01 -2.4858260154724121e-01</leafValues></_>\n<_>\n<internalNodes>\n0 -1 312 2.3226840130519122e-04</internalNodes>\n<leafValues>\n-3.3047258853912354e-01 1.0999260097742081e-01</leafValues></_>\n<_>\n<internalNodes>\n0 -1 313 1.8101120367646217e-03</internalNodes>\n<leafValues>\n9.8744012415409088e-02 -4.9634781479835510e-01</leafValues></_>\n<_>\n<internalNodes>\n0 -1 314 -5.4422430694103241e-03</internalNodes>\n<leafValues>\n2.9344418644905090e-01 -1.3094750046730042e-01</leafValues></_>\n<_>\n<internalNodes>\n0 -1 315 7.4148122221231461e-03</internalNodes>\n<leafValues>\n-1.4762699604034424e-01 3.3277168869972229e-01</leafValues></_>\n<_>\n<internalNodes>\n0 -1 316 -1.5565140172839165e-02</internalNodes>\n<leafValues>\n-6.8404901027679443e-01 9.9872693419456482e-02</leafValues></_>\n<_>\n<internalNodes>\n0 -1 317 2.8720520436763763e-02</internalNodes>\n<leafValues>\n-1.4833280444145203e-01 3.0902579426765442e-01</leafValues></_>\n<_>\n<internalNodes>\n0 -1 318 9.6687392215244472e-05</internalNodes>\n<leafValues>\n-1.7431040108203888e-01 2.1402959525585175e-01</leafValues></_>\n<_>\n<internalNodes>\n0 -1 319 5.2371058613061905e-02</internalNodes>\n<leafValues>\n-7.0156857371330261e-02 4.9222990870475769e-01</leafValues></_>\n<_>\n<internalNodes>\n0 -1 320 -8.6485691368579865e-02</internalNodes>\n<leafValues>\n5.0757247209548950e-01 -7.5294211506843567e-02</leafValues></_>\n<_>\n<internalNodes>\n0 -1 321 -4.2169868946075439e-02</internalNodes>\n<leafValues>\n4.5680961012840271e-01 -9.0219900012016296e-02</leafValues></_>\n<_>\n<internalNodes>\n0 -1 322 4.5369830331765115e-05</internalNodes>\n<leafValues>\n-2.6538279652595520e-01 1.6189539432525635e-01</leafValues></_>\n<_>\n<internalNodes>\n0 -1 323 5.2918000146746635e-03</internalNodes>\n<leafValues>\n7.4890151619911194e-02 -5.4054671525955200e-01</leafValues></_>\n<_>\n<internalNodes>\n0 -1 324 -7.5511651812121272e-04</internalNodes>\n<leafValues>\n-4.9261990189552307e-01 5.8723948895931244e-02</leafValues></_>\n<_>\n<internalNodes>\n0 -1 325 7.5108138844370842e-05</internalNodes>\n<leafValues>\n-2.1432100236415863e-01 1.4077760279178619e-01</leafValues></_>\n<_>\n<internalNodes>\n0 -1 326 4.9981209449470043e-03</internalNodes>\n<leafValues>\n-9.0547338128089905e-02 3.5716068744659424e-01</leafValues></_>\n<_>\n<internalNodes>\n0 -1 327 -1.4929979806765914e-03</internalNodes>\n<leafValues>\n2.5623458623886108e-01 -1.4229069650173187e-01</leafValues></_>\n<_>\n<internalNodes>\n0 -1 328 2.7239411137998104e-03</internalNodes>\n<leafValues>\n-1.5649250149726868e-01 2.1088710427284241e-01</leafValues></_>\n<_>\n<internalNodes>\n0 -1 329 2.2218320518732071e-03</internalNodes>\n<leafValues>\n-1.5072989463806152e-01 2.6801869273185730e-01</leafValues></_>\n<_>\n<internalNodes>\n0 -1 330 -7.3993072146549821e-04</internalNodes>\n<leafValues>\n2.9546990990638733e-01 -1.0692390054464340e-01</leafValues></_>\n<_>\n<internalNodes>\n0 -1 331 2.0113459322601557e-03</internalNodes>\n<leafValues>\n5.0614349544048309e-02 -7.1683371067047119e-01</leafValues></_>\n<_>\n<internalNodes>\n0 -1 332 1.1452870443463326e-02</internalNodes>\n<leafValues>\n-1.2719069421291351e-01 2.4152779579162598e-01</leafValues></_>\n<_>\n<internalNodes>\n0 -1 333 -1.0782170575112104e-03</internalNodes>\n<leafValues>\n2.4813009798526764e-01 -1.3461199402809143e-01</leafValues></_>\n<_>\n<internalNodes>\n0 -1 334 3.3417691010981798e-03</internalNodes>\n<leafValues>\n5.3578309714794159e-02 -5.2274167537689209e-01</leafValues></_>\n<_>\n<internalNodes>\n0 -1 335 6.9398651248775423e-05</internalNodes>\n<leafValues>\n-2.1698740124702454e-01 1.2812179327011108e-01</leafValues></_>\n<_>\n<internalNodes>\n0 -1 336 -4.0982551872730255e-03</internalNodes>\n<leafValues>\n2.4401889741420746e-01 -1.1570589989423752e-01</leafValues></_>\n<_>\n<internalNodes>\n0 -1 337 -1.6289720078930259e-03</internalNodes>\n<leafValues>\n2.8261470794677734e-01 -1.0659469664096832e-01</leafValues></_>\n<_>\n<internalNodes>\n0 -1 338 1.3984859921038151e-02</internalNodes>\n<leafValues>\n4.2715899646282196e-02 -7.3646312952041626e-01</leafValues></_></weakClassifiers></_>\n<_>\n<maxWeakCount>30</maxWeakCount>\n<stageThreshold>-1.1729990243911743e+00</stageThreshold>\n<weakClassifiers>\n<_>\n<internalNodes>\n0 -1 339 1.6416519880294800e-01</internalNodes>\n<leafValues>\n-4.8960301280021667e-01 1.7607709765434265e-01</leafValues></_>\n<_>\n<internalNodes>\n0 -1 340 8.3413062384352088e-04</internalNodes>\n<leafValues>\n-2.8220430016517639e-01 2.4199579656124115e-01</leafValues></_>\n<_>\n<internalNodes>\n0 -1 341 -1.7193210078403354e-03</internalNodes>\n<leafValues>\n-7.1485888957977295e-01 8.6162216961383820e-02</leafValues></_>\n<_>\n<internalNodes>\n0 -1 342 -1.5654950402677059e-03</internalNodes>\n<leafValues>\n-7.2972381114959717e-01 9.4070672988891602e-02</leafValues></_>\n<_>\n<internalNodes>\n0 -1 343 1.9124479731544852e-03</internalNodes>\n<leafValues>\n-3.1187158823013306e-01 1.8143390119075775e-01</leafValues></_>\n<_>\n<internalNodes>\n0 -1 344 -1.3512369990348816e-01</internalNodes>\n<leafValues>\n2.9577299952507019e-01 -2.2179250419139862e-01</leafValues></_>\n<_>\n<internalNodes>\n0 -1 345 -4.0300549007952213e-03</internalNodes>\n<leafValues>\n-6.6595137119293213e-01 8.5431016981601715e-02</leafValues></_>\n<_>\n<internalNodes>\n0 -1 346 -2.8640460222959518e-03</internalNodes>\n<leafValues>\n-6.2086361646652222e-01 5.3106021136045456e-02</leafValues></_>\n<_>\n<internalNodes>\n0 -1 347 -1.4065420255064964e-03</internalNodes>\n<leafValues>\n2.2346289455890656e-01 -2.0211009681224823e-01</leafValues></_>\n<_>\n<internalNodes>\n0 -1 348 -3.5820449702441692e-03</internalNodes>\n<leafValues>\n-5.4030400514602661e-01 6.8213619291782379e-02</leafValues></_>\n<_>\n<internalNodes>\n0 -1 349 4.1544470936059952e-02</internalNodes>\n<leafValues>\n-6.5215840935707092e-02 6.2109231948852539e-01</leafValues></_>\n<_>\n<internalNodes>\n0 -1 350 -9.1709550470113754e-03</internalNodes>\n<leafValues>\n-7.5553297996520996e-01 5.2640449255704880e-02</leafValues></_>\n<_>\n<internalNodes>\n0 -1 351 6.1552738770842552e-03</internalNodes>\n<leafValues>\n9.0939402580261230e-02 -4.4246131181716919e-01</leafValues></_>\n<_>\n<internalNodes>\n0 -1 352 -1.0043520014733076e-03</internalNodes>\n<leafValues>\n2.4292330443859100e-01 -1.8669790029525757e-01</leafValues></_>\n<_>\n<internalNodes>\n0 -1 353 1.1519829742610455e-02</internalNodes>\n<leafValues>\n-1.1763150244951248e-01 3.6723458766937256e-01</leafValues></_>\n<_>\n<internalNodes>\n0 -1 354 -8.9040733873844147e-03</internalNodes>\n<leafValues>\n-4.8931330442428589e-01 1.0897020250558853e-01</leafValues></_>\n<_>\n<internalNodes>\n0 -1 355 5.3973670583218336e-04</internalNodes>\n<leafValues>\n-2.1850399672985077e-01 1.8489989638328552e-01</leafValues></_>\n<_>\n<internalNodes>\n0 -1 356 1.3727260520681739e-03</internalNodes>\n<leafValues>\n-1.5072910487651825e-01 2.9173129796981812e-01</leafValues></_>\n<_>\n<internalNodes>\n0 -1 357 -1.0807390324771404e-02</internalNodes>\n<leafValues>\n4.2897450923919678e-01 -1.0280139744281769e-01</leafValues></_>\n<_>\n<internalNodes>\n0 -1 358 1.2670770520344377e-03</internalNodes>\n<leafValues>\n7.4192158877849579e-02 -6.4208251237869263e-01</leafValues></_>\n<_>\n<internalNodes>\n0 -1 359 2.2991129662841558e-03</internalNodes>\n<leafValues>\n4.7100279480218887e-02 -7.2335231304168701e-01</leafValues></_>\n<_>\n<internalNodes>\n0 -1 360 2.7187510859221220e-03</internalNodes>\n<leafValues>\n-1.7086869478225708e-01 2.3513509333133698e-01</leafValues></_>\n<_>\n<internalNodes>\n0 -1 361 -6.6619180142879486e-03</internalNodes>\n<leafValues>\n-7.8975427150726318e-01 4.5084670186042786e-02</leafValues></_>\n<_>\n<internalNodes>\n0 -1 362 -4.8266649246215820e-02</internalNodes>\n<leafValues>\n-6.9579917192459106e-01 4.1976079344749451e-02</leafValues></_>\n<_>\n<internalNodes>\n0 -1 363 1.5214690007269382e-02</internalNodes>\n<leafValues>\n-1.0818280279636383e-01 3.6460620164871216e-01</leafValues></_>\n<_>\n<internalNodes>\n0 -1 364 -6.0080131515860558e-03</internalNodes>\n<leafValues>\n3.0970990657806396e-01 -1.1359210312366486e-01</leafValues></_>\n<_>\n<internalNodes>\n0 -1 365 6.6127157770097256e-03</internalNodes>\n<leafValues>\n8.0665342509746552e-02 -4.6658530831336975e-01</leafValues></_>\n<_>\n<internalNodes>\n0 -1 366 -7.9607013612985611e-03</internalNodes>\n<leafValues>\n-8.7201941013336182e-01 3.6774590611457825e-02</leafValues></_>\n<_>\n<internalNodes>\n0 -1 367 3.8847199175506830e-03</internalNodes>\n<leafValues>\n-1.1666289716959000e-01 3.3070269227027893e-01</leafValues></_>\n<_>\n<internalNodes>\n0 -1 368 -1.0988810099661350e-03</internalNodes>\n<leafValues>\n2.3872570693492889e-01 -1.7656759917736053e-01</leafValues></_></weakClassifiers></_>\n<_>\n<maxWeakCount>44</maxWeakCount>\n<stageThreshold>-1.0368299484252930e+00</stageThreshold>\n<weakClassifiers>\n<_>\n<internalNodes>\n0 -1 369 3.5903379321098328e-03</internalNodes>\n<leafValues>\n-2.3688079416751862e-01 2.4631640315055847e-01</leafValues></_>\n<_>\n<internalNodes>\n0 -1 370 6.4815930090844631e-03</internalNodes>\n<leafValues>\n-3.1373620033264160e-01 1.8675759434700012e-01</leafValues></_>\n<_>\n<internalNodes>\n0 -1 371 7.3048402555286884e-05</internalNodes>\n<leafValues>\n-2.7644351124763489e-01 1.6496239602565765e-01</leafValues></_>\n<_>\n<internalNodes>\n0 -1 372 -3.8514640182256699e-03</internalNodes>\n<leafValues>\n-5.6014508008956909e-01 1.1294739693403244e-01</leafValues></_>\n<_>\n<internalNodes>\n0 -1 373 3.8588210009038448e-03</internalNodes>\n<leafValues>\n3.9848998188972473e-02 -5.8071857690811157e-01</leafValues></_>\n<_>\n<internalNodes>\n0 -1 374 -2.4651220068335533e-02</internalNodes>\n<leafValues>\n1.6755010187625885e-01 -2.5343671441078186e-01</leafValues></_>\n<_>\n<internalNodes>\n0 -1 375 4.7245521098375320e-02</internalNodes>\n<leafValues>\n-1.0662080347537994e-01 3.9451980590820312e-01</leafValues></_>\n<_>\n<internalNodes>\n0 -1 376 6.5964651294052601e-03</internalNodes>\n<leafValues>\n-1.7744250595569611e-01 2.7280190587043762e-01</leafValues></_>\n<_>\n<internalNodes>\n0 -1 377 -1.3177490327507257e-03</internalNodes>\n<leafValues>\n-5.4272651672363281e-01 4.8606589436531067e-02</leafValues></_>\n<_>\n<internalNodes>\n0 -1 378 -5.0261709839105606e-03</internalNodes>\n<leafValues>\n2.4394249916076660e-01 -1.3143649697303772e-01</leafValues></_>\n<_>\n<internalNodes>\n0 -1 379 3.4632768947631121e-03</internalNodes>\n<leafValues>\n6.9049343466758728e-02 -7.0336240530014038e-01</leafValues></_>\n<_>\n<internalNodes>\n0 -1 380 2.1692588925361633e-03</internalNodes>\n<leafValues>\n-1.3289460539817810e-01 2.2098529338836670e-01</leafValues></_>\n<_>\n<internalNodes>\n0 -1 381 2.9395870864391327e-02</internalNodes>\n<leafValues>\n-2.8530520200729370e-01 1.3543990254402161e-01</leafValues></_>\n<_>\n<internalNodes>\n0 -1 382 -9.6181448316201568e-04</internalNodes>\n<leafValues>\n-5.8041381835937500e-01 3.7450648844242096e-02</leafValues></_>\n<_>\n<internalNodes>\n0 -1 383 -1.0820999741554260e-01</internalNodes>\n<leafValues>\n3.9467281103134155e-01 -7.8655943274497986e-02</leafValues></_>\n<_>\n<internalNodes>\n0 -1 384 -1.8024869263172150e-02</internalNodes>\n<leafValues>\n2.7355629205703735e-01 -1.3415299355983734e-01</leafValues></_>\n<_>\n<internalNodes>\n0 -1 385 6.2509840354323387e-03</internalNodes>\n<leafValues>\n2.3388059809803963e-02 -8.0088591575622559e-01</leafValues></_>\n<_>\n<internalNodes>\n0 -1 386 -1.6088379779830575e-03</internalNodes>\n<leafValues>\n-5.6762522459030151e-01 4.1215669363737106e-02</leafValues></_>\n<_>\n<internalNodes>\n0 -1 387 7.7564752427861094e-04</internalNodes>\n<leafValues>\n-1.4891269803047180e-01 1.9086180627346039e-01</leafValues></_>\n<_>\n<internalNodes>\n0 -1 388 8.7122338300105184e-05</internalNodes>\n<leafValues>\n-1.5557530522346497e-01 1.9428220391273499e-01</leafValues></_>\n<_>\n<internalNodes>\n0 -1 389 -2.0755320787429810e-02</internalNodes>\n<leafValues>\n-6.3006532192230225e-01 3.6134380847215652e-02</leafValues></_>\n<_>\n<internalNodes>\n0 -1 390 -6.2931738793849945e-03</internalNodes>\n<leafValues>\n2.5609248876571655e-01 -1.0588269680738449e-01</leafValues></_>\n<_>\n<internalNodes>\n0 -1 391 1.0844149626791477e-02</internalNodes>\n<leafValues>\n-1.0124850273132324e-01 3.0322128534317017e-01</leafValues></_>\n<_>\n<internalNodes>\n0 -1 392 -6.3752777350600809e-05</internalNodes>\n<leafValues>\n1.9111579656600952e-01 -1.3849230110645294e-01</leafValues></_>\n<_>\n<internalNodes>\n0 -1 393 6.6480963141657412e-05</internalNodes>\n<leafValues>\n-1.5205250680446625e-01 2.1706309914588928e-01</leafValues></_>\n<_>\n<internalNodes>\n0 -1 394 1.3560829684138298e-03</internalNodes>\n<leafValues>\n4.9431789666414261e-02 -6.4279842376708984e-01</leafValues></_>\n<_>\n<internalNodes>\n0 -1 395 -9.0662558795884252e-04</internalNodes>\n<leafValues>\n1.7982010543346405e-01 -1.4044609665870667e-01</leafValues></_>\n<_>\n<internalNodes>\n0 -1 396 1.0473709553480148e-03</internalNodes>\n<leafValues>\n-1.0933549702167511e-01 2.4265940487384796e-01</leafValues></_>\n<_>\n<internalNodes>\n0 -1 397 -1.0243969736620784e-03</internalNodes>\n<leafValues>\n2.7162680029869080e-01 -1.1820919811725616e-01</leafValues></_>\n<_>\n<internalNodes>\n0 -1 398 -1.2024149764329195e-03</internalNodes>\n<leafValues>\n-7.0151102542877197e-01 3.9489898830652237e-02</leafValues></_>\n<_>\n<internalNodes>\n0 -1 399 7.6911649666726589e-03</internalNodes>\n<leafValues>\n-9.2218913137912750e-02 3.1046289205551147e-01</leafValues></_>\n<_>\n<internalNodes>\n0 -1 400 -1.3966549932956696e-01</internalNodes>\n<leafValues>\n6.8979388475418091e-01 -3.9706118404865265e-02</leafValues></_>\n<_>\n<internalNodes>\n0 -1 401 2.1276050247251987e-03</internalNodes>\n<leafValues>\n9.7277611494064331e-02 -2.8841799497604370e-01</leafValues></_>\n<_>\n<internalNodes>\n0 -1 402 -2.7594310231506824e-03</internalNodes>\n<leafValues>\n2.4168670177459717e-01 -1.1277820169925690e-01</leafValues></_>\n<_>\n<internalNodes>\n0 -1 403 5.2236132323741913e-03</internalNodes>\n<leafValues>\n-1.1430279910564423e-01 2.4256780743598938e-01</leafValues></_>\n<_>\n<internalNodes>\n0 -1 404 -1.2590440455824137e-03</internalNodes>\n<leafValues>\n-5.9679388999938965e-01 4.7663960605859756e-02</leafValues></_>\n<_>\n<internalNodes>\n0 -1 405 -3.7192099262028933e-03</internalNodes>\n<leafValues>\n-4.6414130926132202e-01 5.2847690880298615e-02</leafValues></_>\n<_>\n<internalNodes>\n0 -1 406 5.9696151874959469e-03</internalNodes>\n<leafValues>\n-7.3244288563728333e-02 3.8743090629577637e-01</leafValues></_>\n<_>\n<internalNodes>\n0 -1 407 -5.1776720210909843e-03</internalNodes>\n<leafValues>\n-7.4193227291107178e-01 4.0496710687875748e-02</leafValues></_>\n<_>\n<internalNodes>\n0 -1 408 5.0035100430250168e-03</internalNodes>\n<leafValues>\n-1.3888800144195557e-01 1.8767620623111725e-01</leafValues></_>\n<_>\n<internalNodes>\n0 -1 409 -5.2013457752764225e-04</internalNodes>\n<leafValues>\n-5.4940617084503174e-01 4.9417849630117416e-02</leafValues></_>\n<_>\n<internalNodes>\n0 -1 410 5.3168768063187599e-03</internalNodes>\n<leafValues>\n-8.2482978701591492e-02 3.1740561127662659e-01</leafValues></_>\n<_>\n<internalNodes>\n0 -1 411 -1.4774589799344540e-02</internalNodes>\n<leafValues>\n2.0816099643707275e-01 -1.2115559726953506e-01</leafValues></_>\n<_>\n<internalNodes>\n0 -1 412 -4.1416451334953308e-02</internalNodes>\n<leafValues>\n-8.2437807321548462e-01 3.3329188823699951e-02</leafValues></_></weakClassifiers></_>\n<_>\n<maxWeakCount>53</maxWeakCount>\n<stageThreshold>-1.0492420196533203e+00</stageThreshold>\n<weakClassifiers>\n<_>\n<internalNodes>\n0 -1 413 9.0962520334869623e-04</internalNodes>\n<leafValues>\n8.4579966962337494e-02 -5.6118410825729370e-01</leafValues></_>\n<_>\n<internalNodes>\n0 -1 414 -5.6139789521694183e-02</internalNodes>\n<leafValues>\n1.5341749787330627e-01 -2.6967319846153259e-01</leafValues></_>\n<_>\n<internalNodes>\n0 -1 415 1.0292009683325887e-03</internalNodes>\n<leafValues>\n-2.0489980280399323e-01 2.0153179764747620e-01</leafValues></_>\n<_>\n<internalNodes>\n0 -1 416 2.8783010784536600e-03</internalNodes>\n<leafValues>\n-1.7351140081882477e-01 2.1297949552536011e-01</leafValues></_>\n<_>\n<internalNodes>\n0 -1 417 -7.4144392274320126e-03</internalNodes>\n<leafValues>\n-5.9624868631362915e-01 4.7077950090169907e-02</leafValues></_>\n<_>\n<internalNodes>\n0 -1 418 -1.4831849839538336e-03</internalNodes>\n<leafValues>\n1.9024610519409180e-01 -1.5986390411853790e-01</leafValues></_>\n<_>\n<internalNodes>\n0 -1 419 4.5968941412866116e-03</internalNodes>\n<leafValues>\n3.1447131186723709e-02 -6.8694341182708740e-01</leafValues></_>\n<_>\n<internalNodes>\n0 -1 420 2.4255330208688974e-03</internalNodes>\n<leafValues>\n-2.3609359562397003e-01 1.1036109924316406e-01</leafValues></_>\n<_>\n<internalNodes>\n0 -1 421 -8.4950566291809082e-02</internalNodes>\n<leafValues>\n2.3107160627841949e-01 -1.3776530325412750e-01</leafValues></_>\n<_>\n<internalNodes>\n0 -1 422 -5.0145681016147137e-03</internalNodes>\n<leafValues>\n3.8676109910011292e-01 -5.6217379868030548e-02</leafValues></_>\n<_>\n<internalNodes>\n0 -1 423 -2.1482061129063368e-03</internalNodes>\n<leafValues>\n1.8191599845886230e-01 -1.7615699768066406e-01</leafValues></_>\n<_>\n<internalNodes>\n0 -1 424 -1.0396770201623440e-02</internalNodes>\n<leafValues>\n-7.5351381301879883e-01 2.4091970175504684e-02</leafValues></_>\n<_>\n<internalNodes>\n0 -1 425 -1.3466750271618366e-02</internalNodes>\n<leafValues>\n-7.2118860483169556e-01 3.4949369728565216e-02</leafValues></_>\n<_>\n<internalNodes>\n0 -1 426 -8.4435477852821350e-02</internalNodes>\n<leafValues>\n-3.3792638778686523e-01 7.1113817393779755e-02</leafValues></_>\n<_>\n<internalNodes>\n0 -1 427 2.4771490134298801e-03</internalNodes>\n<leafValues>\n-1.1765109747648239e-01 2.2541989386081696e-01</leafValues></_>\n<_>\n<internalNodes>\n0 -1 428 1.5828050673007965e-02</internalNodes>\n<leafValues>\n-6.9536216557025909e-02 3.1395369768142700e-01</leafValues></_>\n<_>\n<internalNodes>\n0 -1 429 6.4916983246803284e-02</internalNodes>\n<leafValues>\n-7.5043588876724243e-02 4.0677338838577271e-01</leafValues></_>\n<_>\n<internalNodes>\n0 -1 430 2.9652469675056636e-04</internalNodes>\n<leafValues>\n7.3953360319137573e-02 -3.4544008970260620e-01</leafValues></_>\n<_>\n<internalNodes>\n0 -1 431 1.3129520229995251e-03</internalNodes>\n<leafValues>\n-1.6909439861774445e-01 1.5258370339870453e-01</leafValues></_>\n<_>\n<internalNodes>\n0 -1 432 -5.8032129891216755e-03</internalNodes>\n<leafValues>\n3.5260149836540222e-01 -8.3444066345691681e-02</leafValues></_>\n<_>\n<internalNodes>\n0 -1 433 -1.4791679382324219e-01</internalNodes>\n<leafValues>\n4.3004658818244934e-01 -5.7309929281473160e-02</leafValues></_>\n<_>\n<internalNodes>\n0 -1 434 -1.6584150493144989e-02</internalNodes>\n<leafValues>\n2.3432689905166626e-01 -1.0907640308141708e-01</leafValues></_>\n<_>\n<internalNodes>\n0 -1 435 3.0183270573616028e-03</internalNodes>\n<leafValues>\n-1.3600939512252808e-01 2.6409289240837097e-01</leafValues></_>\n<_>\n<internalNodes>\n0 -1 436 -3.6471918225288391e-02</internalNodes>\n<leafValues>\n-6.2809741497039795e-01 4.3545108288526535e-02</leafValues></_>\n<_>\n<internalNodes>\n0 -1 437 -7.3119226726703346e-05</internalNodes>\n<leafValues>\n1.6470630466938019e-01 -1.6463780403137207e-01</leafValues></_>\n<_>\n<internalNodes>\n0 -1 438 -3.6719450727105141e-03</internalNodes>\n<leafValues>\n-4.7421360015869141e-01 4.8586919903755188e-02</leafValues></_>\n<_>\n<internalNodes>\n0 -1 439 -4.0151178836822510e-03</internalNodes>\n<leafValues>\n1.8222180008888245e-01 -1.4097510278224945e-01</leafValues></_>\n<_>\n<internalNodes>\n0 -1 440 1.9948020577430725e-02</internalNodes>\n<leafValues>\n-6.9787658751010895e-02 3.6707460880279541e-01</leafValues></_>\n<_>\n<internalNodes>\n0 -1 441 7.6699437340721488e-04</internalNodes>\n<leafValues>\n5.5729299783706665e-02 -4.4585430622100830e-01</leafValues></_>\n<_>\n<internalNodes>\n0 -1 442 -1.1806039838120341e-03</internalNodes>\n<leafValues>\n-4.6876621246337891e-01 4.8902221024036407e-02</leafValues></_>\n<_>\n<internalNodes>\n0 -1 443 1.5847349539399147e-02</internalNodes>\n<leafValues>\n-1.2120209634304047e-01 2.0566530525684357e-01</leafValues></_>\n<_>\n<internalNodes>\n0 -1 444 -1.1985700111836195e-03</internalNodes>\n<leafValues>\n2.0262099802494049e-01 -1.2823820114135742e-01</leafValues></_>\n<_>\n<internalNodes>\n0 -1 445 -1.0964959859848022e-01</internalNodes>\n<leafValues>\n-8.6619192361831665e-01 3.0351849272847176e-02</leafValues></_>\n<_>\n<internalNodes>\n0 -1 446 -9.2532606795430183e-03</internalNodes>\n<leafValues>\n2.9343119263648987e-01 -8.5361950099468231e-02</leafValues></_>\n<_>\n<internalNodes>\n0 -1 447 1.4686530455946922e-02</internalNodes>\n<leafValues>\n3.2798621803522110e-02 -7.7556562423706055e-01</leafValues></_>\n<_>\n<internalNodes>\n0 -1 448 -1.3514430029317737e-03</internalNodes>\n<leafValues>\n2.4426999688148499e-01 -1.1503250151872635e-01</leafValues></_>\n<_>\n<internalNodes>\n0 -1 449 -4.3728090822696686e-03</internalNodes>\n<leafValues>\n2.1687670052051544e-01 -1.3984480500221252e-01</leafValues></_>\n<_>\n<internalNodes>\n0 -1 450 3.4263390116393566e-03</internalNodes>\n<leafValues>\n4.5614220201969147e-02 -5.4567712545394897e-01</leafValues></_>\n<_>\n<internalNodes>\n0 -1 451 -3.8404068909585476e-03</internalNodes>\n<leafValues>\n1.4949500560760498e-01 -1.5062509477138519e-01</leafValues></_>\n<_>\n<internalNodes>\n0 -1 452 3.7988980766385794e-03</internalNodes>\n<leafValues>\n-8.7301626801490784e-02 2.5481531023979187e-01</leafValues></_>\n<_>\n<internalNodes>\n0 -1 453 -2.0094281062483788e-03</internalNodes>\n<leafValues>\n1.7259070277214050e-01 -1.4288470149040222e-01</leafValues></_>\n<_>\n<internalNodes>\n0 -1 454 -2.4370709434151649e-03</internalNodes>\n<leafValues>\n2.6848098635673523e-01 -8.1898219883441925e-02</leafValues></_>\n<_>\n<internalNodes>\n0 -1 455 1.0485399980098009e-03</internalNodes>\n<leafValues>\n4.6113260090351105e-02 -4.7243279218673706e-01</leafValues></_>\n<_>\n<internalNodes>\n0 -1 456 1.7460780218243599e-03</internalNodes>\n<leafValues>\n-1.1030430346727371e-01 2.0379729568958282e-01</leafValues></_>\n<_>\n<internalNodes>\n0 -1 457 5.8608627878129482e-03</internalNodes>\n<leafValues>\n-1.5619659423828125e-01 1.5927439928054810e-01</leafValues></_>\n<_>\n<internalNodes>\n0 -1 458 -2.7724979445338249e-02</internalNodes>\n<leafValues>\n1.1349119991064072e-01 -2.1885140240192413e-01</leafValues></_>\n<_>\n<internalNodes>\n0 -1 459 4.7080639749765396e-02</internalNodes>\n<leafValues>\n-4.1688729077577591e-02 5.3630048036575317e-01</leafValues></_>\n<_>\n<internalNodes>\n0 -1 460 -7.9283770173788071e-03</internalNodes>\n<leafValues>\n-5.3595131635665894e-01 4.4237509369850159e-02</leafValues></_>\n<_>\n<internalNodes>\n0 -1 461 -1.2880540452897549e-02</internalNodes>\n<leafValues>\n2.3237949609756470e-01 -1.0246250033378601e-01</leafValues></_>\n<_>\n<internalNodes>\n0 -1 462 2.3604769259691238e-02</internalNodes>\n<leafValues>\n-8.8291436433792114e-02 3.0561059713363647e-01</leafValues></_>\n<_>\n<internalNodes>\n0 -1 463 1.5902200713753700e-02</internalNodes>\n<leafValues>\n-1.2238109856843948e-01 1.7849120497703552e-01</leafValues></_>\n<_>\n<internalNodes>\n0 -1 464 7.9939495772123337e-03</internalNodes>\n<leafValues>\n-8.3729006350040436e-02 3.2319590449333191e-01</leafValues></_>\n<_>\n<internalNodes>\n0 -1 465 5.7100867852568626e-03</internalNodes>\n<leafValues>\n3.8479208946228027e-02 -6.8138152360916138e-01</leafValues></_></weakClassifiers></_>\n<_>\n<maxWeakCount>51</maxWeakCount>\n<stageThreshold>-1.1122100353240967e+00</stageThreshold>\n<weakClassifiers>\n<_>\n<internalNodes>\n0 -1 466 2.2480720654129982e-03</internalNodes>\n<leafValues>\n-1.6416870057582855e-01 4.1648530960083008e-01</leafValues></_>\n<_>\n<internalNodes>\n0 -1 467 4.5813550241291523e-03</internalNodes>\n<leafValues>\n-1.2465959787368774e-01 4.0385121107101440e-01</leafValues></_>\n<_>\n<internalNodes>\n0 -1 468 -1.6073239967226982e-03</internalNodes>\n<leafValues>\n2.6082459092140198e-01 -2.0282520353794098e-01</leafValues></_>\n<_>\n<internalNodes>\n0 -1 469 2.5205370038747787e-03</internalNodes>\n<leafValues>\n-1.0557229816913605e-01 3.6669111251831055e-01</leafValues></_>\n<_>\n<internalNodes>\n0 -1 470 2.4119189474731684e-03</internalNodes>\n<leafValues>\n-1.3877600431442261e-01 2.9959911108016968e-01</leafValues></_>\n<_>\n<internalNodes>\n0 -1 471 5.7156179100275040e-03</internalNodes>\n<leafValues>\n-7.7683463692665100e-02 4.8481920361518860e-01</leafValues></_>\n<_>\n<internalNodes>\n0 -1 472 3.1093840952962637e-03</internalNodes>\n<leafValues>\n-1.1229000240564346e-01 2.9215508699417114e-01</leafValues></_>\n<_>\n<internalNodes>\n0 -1 473 -8.6836628615856171e-02</internalNodes>\n<leafValues>\n-3.6779600381851196e-01 7.2597242891788483e-02</leafValues></_>\n<_>\n<internalNodes>\n0 -1 474 5.2652182057499886e-03</internalNodes>\n<leafValues>\n-1.0890290141105652e-01 3.1791260838508606e-01</leafValues></_>\n<_>\n<internalNodes>\n0 -1 475 -1.9913529977202415e-02</internalNodes>\n<leafValues>\n-5.3373438119888306e-01 7.0585712790489197e-02</leafValues></_>\n<_>\n<internalNodes>\n0 -1 476 3.8297839928418398e-03</internalNodes>\n<leafValues>\n-1.3575910031795502e-01 2.2788879275321960e-01</leafValues></_>\n<_>\n<internalNodes>\n0 -1 477 1.0431859642267227e-02</internalNodes>\n<leafValues>\n8.8797912001609802e-02 -4.7958970069885254e-01</leafValues></_>\n<_>\n<internalNodes>\n0 -1 478 -2.0040439441800117e-02</internalNodes>\n<leafValues>\n1.5745539963245392e-01 -1.7771570384502411e-01</leafValues></_>\n<_>\n<internalNodes>\n0 -1 479 -5.2967290394008160e-03</internalNodes>\n<leafValues>\n-6.8434917926788330e-01 3.5671461373567581e-02</leafValues></_>\n<_>\n<internalNodes>\n0 -1 480 -2.1624139044433832e-03</internalNodes>\n<leafValues>\n2.8318038582801819e-01 -9.8511278629302979e-02</leafValues></_>\n<_>\n<internalNodes>\n0 -1 481 -3.5464888787828386e-04</internalNodes>\n<leafValues>\n-3.7077340483665466e-01 8.0932952463626862e-02</leafValues></_>\n<_>\n<internalNodes>\n0 -1 482 -1.8152060511056334e-04</internalNodes>\n<leafValues>\n-3.2207030057907104e-01 7.7551059424877167e-02</leafValues></_>\n<_>\n<internalNodes>\n0 -1 483 -2.7563021285459399e-04</internalNodes>\n<leafValues>\n-3.2441279292106628e-01 8.7949477136135101e-02</leafValues></_>\n<_>\n<internalNodes>\n0 -1 484 6.3823810778558254e-03</internalNodes>\n<leafValues>\n-8.8924713432788849e-02 3.1727218627929688e-01</leafValues></_>\n<_>\n<internalNodes>\n0 -1 485 1.1150909587740898e-02</internalNodes>\n<leafValues>\n7.1019843220710754e-02 -4.0494039654731750e-01</leafValues></_>\n<_>\n<internalNodes>\n0 -1 486 -1.0593760525807738e-03</internalNodes>\n<leafValues>\n2.6050668954849243e-01 -1.1765640228986740e-01</leafValues></_>\n<_>\n<internalNodes>\n0 -1 487 2.3906480055302382e-03</internalNodes>\n<leafValues>\n-8.4388621151447296e-02 3.1230551004409790e-01</leafValues></_>\n<_>\n<internalNodes>\n0 -1 488 -1.1000749655067921e-02</internalNodes>\n<leafValues>\n1.9152249395847321e-01 -1.5210020542144775e-01</leafValues></_>\n<_>\n<internalNodes>\n0 -1 489 -2.4643228971399367e-04</internalNodes>\n<leafValues>\n-3.1765159964561462e-01 8.6582258343696594e-02</leafValues></_>\n<_>\n<internalNodes>\n0 -1 490 2.3053269833326340e-02</internalNodes>\n<leafValues>\n-1.0089760273694992e-01 2.5769290328025818e-01</leafValues></_>\n<_>\n<internalNodes>\n0 -1 491 -2.2135660983622074e-03</internalNodes>\n<leafValues>\n4.5689210295677185e-01 -5.2404791116714478e-02</leafValues></_>\n<_>\n<internalNodes>\n0 -1 492 -9.7139709396287799e-04</internalNodes>\n<leafValues>\n-3.5518380999565125e-01 8.0094382166862488e-02</leafValues></_>\n<_>\n<internalNodes>\n0 -1 493 1.5676229959353805e-03</internalNodes>\n<leafValues>\n1.0091420263051987e-01 -2.1603040397167206e-01</leafValues></_>\n<_>\n<internalNodes>\n0 -1 494 7.5460801599547267e-04</internalNodes>\n<leafValues>\n5.7896178215742111e-02 -4.0461111068725586e-01</leafValues></_>\n<_>\n<internalNodes>\n0 -1 495 -2.0698970183730125e-02</internalNodes>\n<leafValues>\n3.1543630361557007e-01 -8.0713048577308655e-02</leafValues></_>\n<_>\n<internalNodes>\n0 -1 496 -2.0619940012693405e-02</internalNodes>\n<leafValues>\n2.7181661128997803e-01 -7.6358616352081299e-02</leafValues></_>\n<_>\n<internalNodes>\n0 -1 497 2.1611129865050316e-02</internalNodes>\n<leafValues>\n3.9493449032306671e-02 -5.9429651498794556e-01</leafValues></_>\n<_>\n<internalNodes>\n0 -1 498 6.5676742233335972e-03</internalNodes>\n<leafValues>\n-9.8353669047355652e-02 2.3649279773235321e-01</leafValues></_>\n<_>\n<internalNodes>\n0 -1 499 -8.8434796780347824e-03</internalNodes>\n<leafValues>\n-5.2523428201675415e-01 4.3099921196699142e-02</leafValues></_>\n<_>\n<internalNodes>\n0 -1 500 -9.4260741025209427e-03</internalNodes>\n<leafValues>\n2.4665130674839020e-01 -9.4130717217922211e-02</leafValues></_>\n<_>\n<internalNodes>\n0 -1 501 -1.9830230157822371e-03</internalNodes>\n<leafValues>\n2.6743701100349426e-01 -9.0069316327571869e-02</leafValues></_>\n<_>\n<internalNodes>\n0 -1 502 -1.7358399927616119e-03</internalNodes>\n<leafValues>\n1.5940019488334656e-01 -1.5789410471916199e-01</leafValues></_>\n<_>\n<internalNodes>\n0 -1 503 -1.3513869605958462e-02</internalNodes>\n<leafValues>\n4.0792331099510193e-01 -6.4223118126392365e-02</leafValues></_>\n<_>\n<internalNodes>\n0 -1 504 -1.9394010305404663e-02</internalNodes>\n<leafValues>\n1.8015649914741516e-01 -1.3731400668621063e-01</leafValues></_>\n<_>\n<internalNodes>\n0 -1 505 -3.2684770412743092e-03</internalNodes>\n<leafValues>\n2.9080390930175781e-01 -8.0161906778812408e-02</leafValues></_>\n<_>\n<internalNodes>\n0 -1 506 4.1773589327931404e-04</internalNodes>\n<leafValues>\n-2.1412980556488037e-01 1.1273439973592758e-01</leafValues></_>\n<_>\n<internalNodes>\n0 -1 507 -7.6351119205355644e-03</internalNodes>\n<leafValues>\n-4.5365959405899048e-01 5.4625060409307480e-02</leafValues></_>\n<_>\n<internalNodes>\n0 -1 508 -8.3652976900339127e-03</internalNodes>\n<leafValues>\n2.6472920179367065e-01 -9.4334110617637634e-02</leafValues></_>\n<_>\n<internalNodes>\n0 -1 509 2.7768449857831001e-02</internalNodes>\n<leafValues>\n-1.0136710107326508e-01 2.0743979513645172e-01</leafValues></_>\n<_>\n<internalNodes>\n0 -1 510 -5.4891228675842285e-02</internalNodes>\n<leafValues>\n2.8840309381484985e-01 -7.5312040746212006e-02</leafValues></_>\n<_>\n<internalNodes>\n0 -1 511 2.5793339591473341e-03</internalNodes>\n<leafValues>\n-1.1088529974222183e-01 2.1724960207939148e-01</leafValues></_>\n<_>\n<internalNodes>\n0 -1 512 6.6196516854688525e-05</internalNodes>\n<leafValues>\n-1.8872100114822388e-01 1.4440689980983734e-01</leafValues></_>\n<_>\n<internalNodes>\n0 -1 513 5.0907251425087452e-03</internalNodes>\n<leafValues>\n-7.7601231634616852e-02 2.9398378729820251e-01</leafValues></_>\n<_>\n<internalNodes>\n0 -1 514 -1.0444259643554688e-01</internalNodes>\n<leafValues>\n2.0133109390735626e-01 -1.0903970152139664e-01</leafValues></_>\n<_>\n<internalNodes>\n0 -1 515 -6.7273090826347470e-04</internalNodes>\n<leafValues>\n1.7945900559425354e-01 -1.2023670226335526e-01</leafValues></_>\n<_>\n<internalNodes>\n0 -1 516 3.2412849832326174e-03</internalNodes>\n<leafValues>\n4.0688131004571915e-02 -5.4600572586059570e-01</leafValues></_></weakClassifiers></_>\n<_>\n<maxWeakCount>44</maxWeakCount>\n<stageThreshold>-1.2529590129852295e+00</stageThreshold>\n<weakClassifiers>\n<_>\n<internalNodes>\n0 -1 517 5.2965320646762848e-03</internalNodes>\n<leafValues>\n-1.2154529988765717e-01 6.4420372247695923e-01</leafValues></_>\n<_>\n<internalNodes>\n0 -1 518 -2.5326260365545750e-03</internalNodes>\n<leafValues>\n5.1233220100402832e-01 -1.1108259856700897e-01</leafValues></_>\n<_>\n<internalNodes>\n0 -1 519 -2.9183230362832546e-03</internalNodes>\n<leafValues>\n-5.0615429878234863e-01 1.1501979827880859e-01</leafValues></_>\n<_>\n<internalNodes>\n0 -1 520 -2.3692339658737183e-02</internalNodes>\n<leafValues>\n3.7167280912399292e-01 -1.4672680199146271e-01</leafValues></_>\n<_>\n<internalNodes>\n0 -1 521 2.0177470520138741e-02</internalNodes>\n<leafValues>\n-1.7388840019702911e-01 4.7759491205215454e-01</leafValues></_>\n<_>\n<internalNodes>\n0 -1 522 -2.1723210811614990e-02</internalNodes>\n<leafValues>\n-4.3880090117454529e-01 1.3576899468898773e-01</leafValues></_>\n<_>\n<internalNodes>\n0 -1 523 2.8369780629873276e-03</internalNodes>\n<leafValues>\n-1.2512069940567017e-01 4.6789029240608215e-01</leafValues></_>\n<_>\n<internalNodes>\n0 -1 524 2.7148420922458172e-03</internalNodes>\n<leafValues>\n-8.8018856942653656e-02 3.6866518855094910e-01</leafValues></_>\n<_>\n<internalNodes>\n0 -1 525 3.2625689636915922e-03</internalNodes>\n<leafValues>\n-8.5335306823253632e-02 5.1644730567932129e-01</leafValues></_>\n<_>\n<internalNodes>\n0 -1 526 -3.5618850961327553e-03</internalNodes>\n<leafValues>\n-4.4503930211067200e-01 9.1738171875476837e-02</leafValues></_>\n<_>\n<internalNodes>\n0 -1 527 1.9227749435231090e-03</internalNodes>\n<leafValues>\n-1.1077310144901276e-01 3.9416998624801636e-01</leafValues></_>\n<_>\n<internalNodes>\n0 -1 528 -3.5111969918943942e-04</internalNodes>\n<leafValues>\n-3.7775701284408569e-01 1.2166170030832291e-01</leafValues></_>\n<_>\n<internalNodes>\n0 -1 529 1.9121779769193381e-04</internalNodes>\n<leafValues>\n7.4816018342971802e-02 -4.0767100453376770e-01</leafValues></_>\n<_>\n<internalNodes>\n0 -1 530 -2.6525629800744355e-04</internalNodes>\n<leafValues>\n-3.3151718974113464e-01 1.1291120201349258e-01</leafValues></_>\n<_>\n<internalNodes>\n0 -1 531 2.0086700096726418e-02</internalNodes>\n<leafValues>\n-6.1598118394613266e-02 5.6128817796707153e-01</leafValues></_>\n<_>\n<internalNodes>\n0 -1 532 3.6783248186111450e-02</internalNodes>\n<leafValues>\n-6.0251388698816299e-02 5.2192491292953491e-01</leafValues></_>\n<_>\n<internalNodes>\n0 -1 533 1.3941619545221329e-03</internalNodes>\n<leafValues>\n-3.5503050684928894e-01 1.0863020271062851e-01</leafValues></_>\n<_>\n<internalNodes>\n0 -1 534 -1.5181669965386391e-02</internalNodes>\n<leafValues>\n2.2739650309085846e-01 -1.6252990067005157e-01</leafValues></_>\n<_>\n<internalNodes>\n0 -1 535 4.6796840615570545e-03</internalNodes>\n<leafValues>\n-5.7535041123628616e-02 4.8124238848686218e-01</leafValues></_>\n<_>\n<internalNodes>\n0 -1 536 -1.7988319450523704e-04</internalNodes>\n<leafValues>\n-3.0587670207023621e-01 1.0868159681558609e-01</leafValues></_>\n<_>\n<internalNodes>\n0 -1 537 -3.5850999411195517e-03</internalNodes>\n<leafValues>\n3.8596940040588379e-01 -9.2194072902202606e-02</leafValues></_>\n<_>\n<internalNodes>\n0 -1 538 1.0793360415846109e-03</internalNodes>\n<leafValues>\n-1.1190389841794968e-01 3.1125208735466003e-01</leafValues></_>\n<_>\n<internalNodes>\n0 -1 539 7.3285802500322461e-05</internalNodes>\n<leafValues>\n-2.0239910483360291e-01 1.5586680173873901e-01</leafValues></_>\n<_>\n<internalNodes>\n0 -1 540 1.3678739964962006e-01</internalNodes>\n<leafValues>\n-2.1672859787940979e-01 1.4420390129089355e-01</leafValues></_>\n<_>\n<internalNodes>\n0 -1 541 -1.1729259975254536e-02</internalNodes>\n<leafValues>\n4.3503770232200623e-01 -7.4886530637741089e-02</leafValues></_>\n<_>\n<internalNodes>\n0 -1 542 3.9230841211974621e-03</internalNodes>\n<leafValues>\n-5.0289329141378403e-02 5.8831161260604858e-01</leafValues></_>\n<_>\n<internalNodes>\n0 -1 543 -2.9819121118634939e-04</internalNodes>\n<leafValues>\n-3.8232401013374329e-01 9.2451132833957672e-02</leafValues></_>\n<_>\n<internalNodes>\n0 -1 544 -4.7992770560085773e-03</internalNodes>\n<leafValues>\n4.8488789796829224e-01 -7.3136523365974426e-02</leafValues></_>\n<_>\n<internalNodes>\n0 -1 545 -3.0155890271998942e-04</internalNodes>\n<leafValues>\n-3.5757359862327576e-01 1.0581880062818527e-01</leafValues></_>\n<_>\n<internalNodes>\n0 -1 546 1.0390769690275192e-02</internalNodes>\n<leafValues>\n5.2920468151569366e-02 -5.7249659299850464e-01</leafValues></_>\n<_>\n<internalNodes>\n0 -1 547 -9.4488041941076517e-04</internalNodes>\n<leafValues>\n4.4966828823089600e-01 -8.3075523376464844e-02</leafValues></_>\n<_>\n<internalNodes>\n0 -1 548 1.2651870492845774e-03</internalNodes>\n<leafValues>\n-9.6695438027381897e-02 3.1302270293235779e-01</leafValues></_>\n<_>\n<internalNodes>\n0 -1 549 1.7094539478421211e-02</internalNodes>\n<leafValues>\n-8.1248976290225983e-02 3.6113831400871277e-01</leafValues></_>\n<_>\n<internalNodes>\n0 -1 550 2.5973359588533640e-03</internalNodes>\n<leafValues>\n-1.1338350176811218e-01 2.2233949601650238e-01</leafValues></_>\n<_>\n<internalNodes>\n0 -1 551 1.4527440071105957e-03</internalNodes>\n<leafValues>\n6.9750443100929260e-02 -3.6720710992813110e-01</leafValues></_>\n<_>\n<internalNodes>\n0 -1 552 4.7638658434152603e-03</internalNodes>\n<leafValues>\n-6.5788961946964264e-02 3.8328540325164795e-01</leafValues></_>\n<_>\n<internalNodes>\n0 -1 553 -6.2501081265509129e-03</internalNodes>\n<leafValues>\n-7.0754468441009521e-01 3.8350198417901993e-02</leafValues></_>\n<_>\n<internalNodes>\n0 -1 554 -3.1765329185873270e-03</internalNodes>\n<leafValues>\n1.3755400478839874e-01 -2.3240029811859131e-01</leafValues></_>\n<_>\n<internalNodes>\n0 -1 555 3.2191169448196888e-03</internalNodes>\n<leafValues>\n-1.2935450673103333e-01 2.2737880051136017e-01</leafValues></_>\n<_>\n<internalNodes>\n0 -1 556 -5.6365579366683960e-03</internalNodes>\n<leafValues>\n3.8067150115966797e-01 -6.7246839404106140e-02</leafValues></_>\n<_>\n<internalNodes>\n0 -1 557 -2.3844049428589642e-04</internalNodes>\n<leafValues>\n-3.1122380495071411e-01 8.3838358521461487e-02</leafValues></_>\n<_>\n<internalNodes>\n0 -1 558 -4.1017560288310051e-03</internalNodes>\n<leafValues>\n2.6067280769348145e-01 -1.0449740290641785e-01</leafValues></_>\n<_>\n<internalNodes>\n0 -1 559 1.3336989795789123e-03</internalNodes>\n<leafValues>\n-5.8250140398740768e-02 4.7682440280914307e-01</leafValues></_>\n<_>\n<internalNodes>\n0 -1 560 -1.2090239906683564e-03</internalNodes>\n<leafValues>\n1.4834509789943695e-01 -1.7329469323158264e-01</leafValues></_></weakClassifiers></_>\n<_>\n<maxWeakCount>72</maxWeakCount>\n<stageThreshold>-1.1188739538192749e+00</stageThreshold>\n<weakClassifiers>\n<_>\n<internalNodes>\n0 -1 561 -3.1760931015014648e-03</internalNodes>\n<leafValues>\n3.3333331346511841e-01 -1.6642349958419800e-01</leafValues></_>\n<_>\n<internalNodes>\n0 -1 562 2.4858079850673676e-02</internalNodes>\n<leafValues>\n-7.2728872299194336e-02 5.6674581766128540e-01</leafValues></_>\n<_>\n<internalNodes>\n0 -1 563 -7.7597280032932758e-03</internalNodes>\n<leafValues>\n4.6258568763732910e-01 -9.3112178146839142e-02</leafValues></_>\n<_>\n<internalNodes>\n0 -1 564 7.8239021822810173e-03</internalNodes>\n<leafValues>\n-2.7414610981941223e-01 1.3243049383163452e-01</leafValues></_>\n<_>\n<internalNodes>\n0 -1 565 -1.0948839597404003e-02</internalNodes>\n<leafValues>\n2.2345480322837830e-01 -1.4965449273586273e-01</leafValues></_>\n<_>\n<internalNodes>\n0 -1 566 -3.4349008928984404e-03</internalNodes>\n<leafValues>\n3.8724988698959351e-01 -6.6121727228164673e-02</leafValues></_>\n<_>\n<internalNodes>\n0 -1 567 -3.1156290322542191e-02</internalNodes>\n<leafValues>\n2.4078279733657837e-01 -1.1406909674406052e-01</leafValues></_>\n<_>\n<internalNodes>\n0 -1 568 1.1100519914180040e-03</internalNodes>\n<leafValues>\n-2.8207978606224060e-01 1.3275429606437683e-01</leafValues></_>\n<_>\n<internalNodes>\n0 -1 569 3.1762740109115839e-03</internalNodes>\n<leafValues>\n3.4585930407047272e-02 -5.1374310255050659e-01</leafValues></_>\n<_>\n<internalNodes>\n0 -1 570 -2.7977459132671356e-02</internalNodes>\n<leafValues>\n2.3926779627799988e-01 -1.3255919516086578e-01</leafValues></_>\n<_>\n<internalNodes>\n0 -1 571 -2.3097939789295197e-02</internalNodes>\n<leafValues>\n3.9019620418548584e-01 -7.8478008508682251e-02</leafValues></_>\n<_>\n<internalNodes>\n0 -1 572 -3.9731930010020733e-03</internalNodes>\n<leafValues>\n3.0691069364547729e-01 -7.0601403713226318e-02</leafValues></_>\n<_>\n<internalNodes>\n0 -1 573 3.0335749033838511e-03</internalNodes>\n<leafValues>\n-1.4002190530300140e-01 1.9134859740734100e-01</leafValues></_>\n<_>\n<internalNodes>\n0 -1 574 -1.0844370350241661e-02</internalNodes>\n<leafValues>\n1.6548730432987213e-01 -1.5657779574394226e-01</leafValues></_>\n<_>\n<internalNodes>\n0 -1 575 -1.8150510266423225e-02</internalNodes>\n<leafValues>\n-6.3243591785430908e-01 3.9561819285154343e-02</leafValues></_>\n<_>\n<internalNodes>\n0 -1 576 7.1052298881113529e-04</internalNodes>\n<leafValues>\n-1.8515570461750031e-01 1.3408809900283813e-01</leafValues></_>\n<_>\n<internalNodes>\n0 -1 577 1.0893340222537518e-02</internalNodes>\n<leafValues>\n-2.6730230078101158e-02 6.0971802473068237e-01</leafValues></_>\n<_>\n<internalNodes>\n0 -1 578 -2.8780900174751878e-04</internalNodes>\n<leafValues>\n-3.0065140128135681e-01 7.3171459138393402e-02</leafValues></_>\n<_>\n<internalNodes>\n0 -1 579 -3.5855069290846586e-03</internalNodes>\n<leafValues>\n2.6217609643936157e-01 -7.9714097082614899e-02</leafValues></_>\n<_>\n<internalNodes>\n0 -1 580 -1.9759280607104301e-02</internalNodes>\n<leafValues>\n-5.9039229154586792e-01 4.0698971599340439e-02</leafValues></_>\n<_>\n<internalNodes>\n0 -1 581 -1.0845210403203964e-02</internalNodes>\n<leafValues>\n1.6364559531211853e-01 -1.2586060166358948e-01</leafValues></_>\n<_>\n<internalNodes>\n0 -1 582 -4.3183090165257454e-03</internalNodes>\n<leafValues>\n-5.7474881410598755e-01 3.7644311785697937e-02</leafValues></_>\n<_>\n<internalNodes>\n0 -1 583 1.4913700288161635e-03</internalNodes>\n<leafValues>\n6.0913469642400742e-02 -3.0222928524017334e-01</leafValues></_>\n<_>\n<internalNodes>\n0 -1 584 1.5675699338316917e-02</internalNodes>\n<leafValues>\n-7.3145911097526550e-02 2.9379451274871826e-01</leafValues></_>\n<_>\n<internalNodes>\n0 -1 585 -1.1033560149371624e-02</internalNodes>\n<leafValues>\n3.9318808913230896e-01 -4.7084320336580276e-02</leafValues></_>\n<_>\n<internalNodes>\n0 -1 586 8.8555756956338882e-03</internalNodes>\n<leafValues>\n3.7601381540298462e-02 -4.9108490347862244e-01</leafValues></_>\n<_>\n<internalNodes>\n0 -1 587 -8.9665671112015843e-04</internalNodes>\n<leafValues>\n1.7952020466327667e-01 -1.1086239665746689e-01</leafValues></_>\n<_>\n<internalNodes>\n0 -1 588 -3.0592409893870354e-03</internalNodes>\n<leafValues>\n-4.4429460167884827e-01 5.1005430519580841e-02</leafValues></_>\n<_>\n<internalNodes>\n0 -1 589 6.3201179727911949e-03</internalNodes>\n<leafValues>\n-5.2841089665889740e-02 3.7197101116180420e-01</leafValues></_>\n<_>\n<internalNodes>\n0 -1 590 2.0682830363512039e-02</internalNodes>\n<leafValues>\n5.7667169719934464e-02 -3.6901599168777466e-01</leafValues></_>\n<_>\n<internalNodes>\n0 -1 591 9.9822662770748138e-02</internalNodes>\n<leafValues>\n-3.7377018481492996e-02 5.8165591955184937e-01</leafValues></_>\n<_>\n<internalNodes>\n0 -1 592 -6.5854229032993317e-03</internalNodes>\n<leafValues>\n2.8509441018104553e-01 -6.0978069901466370e-02</leafValues></_>\n<_>\n<internalNodes>\n0 -1 593 -6.0900300741195679e-02</internalNodes>\n<leafValues>\n-5.1031768321990967e-01 3.7787400186061859e-02</leafValues></_>\n<_>\n<internalNodes>\n0 -1 594 -2.9991709161549807e-03</internalNodes>\n<leafValues>\n-4.7943010926246643e-01 3.8833890110254288e-02</leafValues></_>\n<_>\n<internalNodes>\n0 -1 595 -9.8906438797712326e-03</internalNodes>\n<leafValues>\n4.0609079599380493e-01 -4.7869648784399033e-02</leafValues></_>\n<_>\n<internalNodes>\n0 -1 596 -8.2688927650451660e-02</internalNodes>\n<leafValues>\n-7.0671182870864868e-01 2.7487749233841896e-02</leafValues></_>\n<_>\n<internalNodes>\n0 -1 597 5.0060399807989597e-03</internalNodes>\n<leafValues>\n2.8208440169692039e-02 -5.2909690141677856e-01</leafValues></_>\n<_>\n<internalNodes>\n0 -1 598 6.1695030890405178e-03</internalNodes>\n<leafValues>\n-5.4554861038923264e-02 3.2837980985641479e-01</leafValues></_>\n<_>\n<internalNodes>\n0 -1 599 -3.3914761152118444e-03</internalNodes>\n<leafValues>\n9.2117667198181152e-02 -2.1637110412120819e-01</leafValues></_>\n<_>\n<internalNodes>\n0 -1 600 -2.6131230406463146e-03</internalNodes>\n<leafValues>\n1.3651019334793091e-01 -1.3781130313873291e-01</leafValues></_>\n<_>\n<internalNodes>\n0 -1 601 8.0490659456700087e-04</internalNodes>\n<leafValues>\n-6.8637110292911530e-02 3.3581069111824036e-01</leafValues></_>\n<_>\n<internalNodes>\n0 -1 602 -3.8106508553028107e-02</internalNodes>\n<leafValues>\n2.9445430636405945e-01 -6.8239226937294006e-02</leafValues></_>\n<_>\n<internalNodes>\n0 -1 603 7.2450799052603543e-05</internalNodes>\n<leafValues>\n-1.6750130057334900e-01 1.2178230285644531e-01</leafValues></_>\n<_>\n<internalNodes>\n0 -1 604 1.5837959945201874e-03</internalNodes>\n<leafValues>\n-9.2042848467826843e-02 2.1348990499973297e-01</leafValues></_>\n<_>\n<internalNodes>\n0 -1 605 1.2924340553581715e-03</internalNodes>\n<leafValues>\n6.2917232513427734e-02 -3.6174508929252625e-01</leafValues></_>\n<_>\n<internalNodes>\n0 -1 606 9.9146775901317596e-03</internalNodes>\n<leafValues>\n1.9534060731530190e-02 -8.1015038490295410e-01</leafValues></_>\n<_>\n<internalNodes>\n0 -1 607 -1.7086310544982553e-03</internalNodes>\n<leafValues>\n2.5525239109992981e-01 -6.8229459226131439e-02</leafValues></_>\n<_>\n<internalNodes>\n0 -1 608 2.1844399161636829e-03</internalNodes>\n<leafValues>\n2.3314049467444420e-02 -8.4296780824661255e-01</leafValues></_>\n<_>\n<internalNodes>\n0 -1 609 -3.4244330599904060e-03</internalNodes>\n<leafValues>\n2.7213689684867859e-01 -7.6395228505134583e-02</leafValues></_>\n<_>\n<internalNodes>\n0 -1 610 2.7591470279730856e-04</internalNodes>\n<leafValues>\n-1.0742840170860291e-01 2.2888970375061035e-01</leafValues></_>\n<_>\n<internalNodes>\n0 -1 611 -6.0005177510902286e-04</internalNodes>\n<leafValues>\n-2.9854211211204529e-01 6.3479736447334290e-02</leafValues></_>\n<_>\n<internalNodes>\n0 -1 612 -2.5001438916660845e-04</internalNodes>\n<leafValues>\n-2.7178969979286194e-01 6.9615006446838379e-02</leafValues></_>\n<_>\n<internalNodes>\n0 -1 613 6.8751391954720020e-03</internalNodes>\n<leafValues>\n-5.7185899466276169e-02 3.6695951223373413e-01</leafValues></_>\n<_>\n<internalNodes>\n0 -1 614 1.2761900201439857e-02</internalNodes>\n<leafValues>\n6.7955687642097473e-02 -2.8534150123596191e-01</leafValues></_>\n<_>\n<internalNodes>\n0 -1 615 -1.4752789866179228e-03</internalNodes>\n<leafValues>\n2.0680660009384155e-01 -1.0059390217065811e-01</leafValues></_>\n<_>\n<internalNodes>\n0 -1 616 1.2138819694519043e-01</internalNodes>\n<leafValues>\n-9.7126796841621399e-02 1.9789619743824005e-01</leafValues></_>\n<_>\n<internalNodes>\n0 -1 617 -5.0081279128789902e-02</internalNodes>\n<leafValues>\n2.8417178988456726e-01 -6.7879997193813324e-02</leafValues></_>\n<_>\n<internalNodes>\n0 -1 618 3.1454950571060181e-02</internalNodes>\n<leafValues>\n-8.9468672871589661e-02 2.1298420429229736e-01</leafValues></_>\n<_>\n<internalNodes>\n0 -1 619 1.8878319533541799e-03</internalNodes>\n<leafValues>\n-1.1656440049409866e-01 1.6663520038127899e-01</leafValues></_>\n<_>\n<internalNodes>\n0 -1 620 -5.7211960665881634e-03</internalNodes>\n<leafValues>\n2.3702140152454376e-01 -9.0776607394218445e-02</leafValues></_>\n<_>\n<internalNodes>\n0 -1 621 -1.8076719425152987e-04</internalNodes>\n<leafValues>\n1.7951929569244385e-01 -1.0793480277061462e-01</leafValues></_>\n<_>\n<internalNodes>\n0 -1 622 -1.9761849939823151e-01</internalNodes>\n<leafValues>\n4.5674291253089905e-01 -4.0480159223079681e-02</leafValues></_>\n<_>\n<internalNodes>\n0 -1 623 -2.3846809926908463e-04</internalNodes>\n<leafValues>\n-2.3733009397983551e-01 7.5922161340713501e-02</leafValues></_>\n<_>\n<internalNodes>\n0 -1 624 2.1540730085689574e-04</internalNodes>\n<leafValues>\n8.1688016653060913e-02 -2.8685030341148376e-01</leafValues></_>\n<_>\n<internalNodes>\n0 -1 625 1.0163090191781521e-02</internalNodes>\n<leafValues>\n-4.1250020265579224e-02 4.8038348555564880e-01</leafValues></_>\n<_>\n<internalNodes>\n0 -1 626 -7.2184870950877666e-03</internalNodes>\n<leafValues>\n1.7458580434322357e-01 -1.0146500170230865e-01</leafValues></_>\n<_>\n<internalNodes>\n0 -1 627 2.4263170361518860e-01</internalNodes>\n<leafValues>\n5.3426481783390045e-02 -3.2318529486656189e-01</leafValues></_>\n<_>\n<internalNodes>\n0 -1 628 6.9304101634770632e-04</internalNodes>\n<leafValues>\n-1.1499179899692535e-01 1.4793939888477325e-01</leafValues></_>\n<_>\n<internalNodes>\n0 -1 629 3.5475199110805988e-03</internalNodes>\n<leafValues>\n-3.9424978196620941e-02 5.3126180171966553e-01</leafValues></_>\n<_>\n<internalNodes>\n0 -1 630 2.1403690334409475e-04</internalNodes>\n<leafValues>\n6.9753833115100861e-02 -2.7319580316543579e-01</leafValues></_>\n<_>\n<internalNodes>\n0 -1 631 -5.7119462871924043e-04</internalNodes>\n<leafValues>\n3.4369900822639465e-01 